tree
version=v4
num_class=1
num_tree_per_iteration=1
label_index=0
max_feature_idx=24
objective=regression
feature_names=ID State City Property_Type BHK Size_in_SqFt Year_Built Furnished_Status Floor_No Total_Floors Age_of_Property Nearby_Schools Nearby_Hospitals Public_Transport_Accessibility Parking_Space Security Facing Owner_Type Availability_Status Price_Growth_Percent Good_Investment Public_Transport_Accessibility_Num City_Median_PPSF Locality_freq Amenities_freq
feature_infos=[1:250000] -1:12:15:19:5:4:11:13:18:10:17:3:16:9:7:0:14:6:1:8:2 -1:7:0:10:3:4:8:39:36:20:41:30:25:16:5:11:1:12:24:31:22:9:38:19:34:6:13:23:21:37:17:18:35:14:40:32:15:33:29:27:28:2:26 -1:2:1:0 [1:5] [500:5000] [1990:2023] -1:2:0:1 [0:30] [1:30] [2:35] [1:10] [1:10] -1:0:1:2 -1:0:1 -1:1:0 -1:3:1:2:0 -1:1:0:2 -1:0:1 none [0:1] [1:3] [9075.7871878393053:9540.6794814483692] [0.0017639999999999999:0.0022680000000000001] [0.00142:0.040871999999999999]
tree_sizes=2305 2205 2334 2171 2328 2248 2322 2325 2237 2304 2305 2335 2209 2199 2233 2335 2279 2187 2223 2196 2197 2327 2250 2233 2308 2212 2330 2226 2318 2291 2165 2180 2312 2266 2256 2219 2201 2220 2310 2187 2253 2244 2319 2314 2164 2227 2261 2309 2231 2154 2277 2317 2328 2225 2227 2305 2181 2149 2258 2203 2255 2306 2276 2200 2227 2163 2159 2198 2315 2229 2156 2275 2265 2207 2267 2193 2178 2290 2161 2288 2289 2295 2276 2237 2178 2251 2237 2297 2290 2222 2162 2234 2274 2229 2196 2234 2285 2220 2217 2140 2262 2211 2301 2268 2211 2283 2265 2283 2218 2232 2234 2188 2184 2176 2241 2252 2250 2212 2220 2194 2255 2234 2186 2222 2224 2171 2250 2239 2252 2196 2081 2243 2211 2177 2152 2209 2209 2239 2261 2292 2243 2259 2230 2281 2165 2209 2163 2105 2207 2260 2242 2149 2190 2185 2211 2153 2192 2227 2218

Tree=0
num_leaves=24
num_cat=2
split_feature=20 5 5 5 5 5 5 5 5 5 5 5 5 5 5 2 5 5 2 5 5 5 5
split_gain=1.30876e+09 1.48541e+08 1.47662e+08 2.10285e+07 2.08039e+07 2.07592e+07 2.01951e+07 3.63004e+06 3.07475e+06 2.92115e+06 2.64182e+06 2.55471e+06 2.32907e+06 2.09094e+06 1.61347e+06 550313 479655 479099 477262 465308 450101 446975 420284
threshold=1.0000000180025095e-35 3176.5000000000005 2369.5000000000005 3438.5000000000005 1375.5000000000002 2064.5000000000005 4244.5000000000009 3681.5000000000005 1412.5000000000002 4138.5000000000009 2637.5000000000005 1880.5000000000002 2869.5000000000005 920.50000000000011 4790.5000000000009 0 1063.5000000000002 1138.5000000000002 1 4503.5000000000009 591.50000000000011 3788.5000000000005 3212.5000000000005
decision_type=2 2 2 2 2 2 2 2 2 2 2 2 2 2 2 1 2 2 1 2 2 2 2
left_child=2 5 4 12 13 8 7 -3 16 21 -7 -6 -4 20 19 -16 -2 18 -15 -8 -1 -5 -14
right_child=1 6 3 9 11 10 14 -9 -10 -11 -12 -13 22 17 15 -17 -18 -19 -20 -21 -22 -23 -24
leaf_value=255.58879877968724 244.07554502590173 250.08731697125731 260.47334556377763 262.81502706818435 258.22079393251636 247.62182123125098 252.29337337203606 251.31485245276164 246.24113570251691 264.80758826072105 248.84813865113833 259.30252961543323 261.37472121295878 256.09653946308475 254.09993716225989 253.14884856438394 245.07832676503713 257.37651451513744 257.06671774686225 252.84765516393188 256.30733385231167 263.61827643490091 262.12477537270036
leaf_weight=2819 2363 10783 8670 3854 11934 8218 7013 13647 6742 4527 9445 10063 4991 2029 2642 3709 2449 6145 4089 8236 9615 3183 3007
leaf_count=2819 2363 10783 8670 3854 11934 8218 7013 13647 6742 4527 9445 10063 4991 2029 2642 3709 2449 6145 4089 8236 9615 3183 3007
internal_value=254.646 249.988 259.323 262.178 257.597 247.2 251.758 250.773 245.552 263.816 248.278 258.716 261.041 256.601 252.872 253.541 244.586 257.065 256.751 252.593 256.144 263.178 261.657
internal_weight=150173 75247 74926 28232 46694 29217 46030 24430 11554 11564 17663 21997 16668 24697 21600 6351 4812 12263 6118 15249 12434 7037 7998
internal_count=150173 75247 74926 28232 46694 29217 46030 24430 11554 11564 17663 21997 16668 24697 21600 6351 4812 12263 6118 15249 12434 7037 7998
cat_boundaries=0 2 4
cat_threshold=2774762380 39 984619275 64
is_linear=0
shrinkage=1


Tree=1
num_leaves=24
num_cat=9
split_feature=2 2 5 2 0 23 12 9 0 2 2 2 21 11 9 5 8 12 8 2 16 2 23
split_gain=710277 155135 153600 259540 224051 192310 185135 153582 146753 188802 144806 137897 162144 150993 122295 164975 133188 124086 119923 154815 158833 146363 198223
threshold=0 1 1211.5000000000002 2 134078.50000000003 0.0019540000000000004 7.5000000000000009 29.500000000000004 203820.50000000003 3 4 5 2.5000000000000004 1.5000000000000002 29.500000000000004 848.50000000000011 7.5000000000000009 3.5000000000000004 21.500000000000004 6 7 8 0.0019140000000000001
decision_type=1 1 2 1 2 2 2 2 2 1 1 1 2 2 2 2 2 2 2 1 1 1 2
left_child=18 8 3 -3 6 7 -5 10 -2 -10 -6 13 -13 -7 -11 -16 -17 -18 -1 -20 21 -21 -23
right_child=1 2 -4 4 5 11 -8 -9 9 14 -12 12 -14 -15 15 16 17 -19 19 20 -22 22 -24
leaf_value=0.21056166906368823 -0.19078015075474569 -0.22003356672721927 -0.052930651585961441 0.84381616235623536 -1.4213850746892527 2.4786657018821785 0.054702116808490825 -4.5796416605161934 0.31605326014761637 -0.23754223674583758 0.0053027789675550415 0.32572395826837236 -0.91852895172047688 0.48843227477061185 5.440594474830438 3.5350974849818915 2.8000079975088603 -1.3302236355589794 -0.22990363209376929 0.58701468374228694 -0.057664284249298384 1.0582569813503244 -0.1401313025934828
leaf_weight=35625 32868 2970 50369 2510 273 107 1056 24 3587 3849 488 754 401 866 20 29 24 74 3885 2723 5140 413 2095
leaf_count=35625 32868 2970 50369 2510 273 107 1056 24 3587 3849 488 754 401 866 20 29 24 74 3885 2723 5140 413 2095
internal_value=0.0073226 -0.0693789 -0.018225 0.166756 0.343873 0.0190795 0.610145 -0.649754 -0.145001 0.053236 -0.525224 0.265828 -0.105389 0.700337 -0.183015 1.23143 0.564768 -0.316864 0.161487 0.0389631 0.13977 0.333508 0.057016
internal_weight=150150 100269 59818 9449 6479 2913 3566 785 40451 7583 761 2128 1155 973 3996 147 127 98 49881 14256 10371 5231 2508
internal_count=150150 100269 59818 9449 6479 2913 3566 785 40451 7583 761 2128 1155 973 3996 147 127 98 49881 14256 10371 5231 2508
cat_boundaries=0 2 4 6 8 10 11 13 14 16
cat_threshold=3024106188 290 1244660003 17 25165824 584 1073741827 17 657408 4 101392 8324 32 9 805310528 258
is_linear=0
shrinkage=0.05


Tree=2
num_leaves=24
num_cat=3
split_feature=20 5 5 5 5 5 5 5 5 5 5 5 5 5 5 5 2 5 5 5 2 2 5
split_gain=1.17942e+09 1.35815e+08 1.32501e+08 1.95983e+07 1.86452e+07 1.81413e+07 1.72771e+07 3.30471e+06 2.76184e+06 2.64328e+06 2.57137e+06 2.51579e+06 2.34442e+06 2.07712e+06 1.47629e+06 467614 461690 457841 455780 424755 413210 391732 386027
threshold=1.0000000180025095e-35 2332.5000000000005 3159.5000000000005 3456.5000000000005 2047.5000000000002 4244.5000000000009 1375.5000000000002 3647.5000000000005 1412.5000000000002 4103.5000000000009 2958.5000000000005 2583.5000000000005 1917.5000000000002 955.50000000000011 4773.5000000000009 955.50000000000011 0 2690.5000000000005 1662.5000000000002 591.50000000000011 1 2 4471.5000000000009
decision_type=2 2 2 2 2 2 2 2 2 2 2 2 2 2 2 2 1 2 2 2 1 1 2
left_child=1 6 4 10 8 7 13 -4 15 -5 17 -6 18 19 -7 -2 -16 -3 -8 21 -9 -1 -11
right_child=2 3 5 9 11 14 12 20 -10 22 -12 -13 -14 -15 16 -17 -18 -19 -20 -21 -22 -23 -24
leaf_value=1.5855360406540167 -10.220414451179034 5.3248964698892598 -4.3643817314836202 8.0751211811303882 -6.7508213132369166 -1.9782738489850571 3.0997708776499313 -2.872272077209892 -7.9887816604512798 9.1958238921153193 6.8295478992009109 -5.5398841997472719 4.433834904704141 2.3562087505320832 -1.5042677345208695 -9.1953719409406798 -0.67170800619810989 5.990818741986315 3.6994914592022492 1.5794417930573883 -3.4603172471339549 0.38129334392242781 10.093008290345104
leaf_weight=1164 1767 6479 10355 6567 7525 14676 7139 6650 6452 2600 6858 9988 8578 11230 3347 3069 3431 4310 5706 10690 7727 1641 2265
leaf_count=1164 1767 6479 10355 6567 7525 14676 7139 6650 6452 2600 6858 9988 8578 11230 3347 3069 3431 4310 5706 10690 7727 1641 2265
internal_value=0.0174386 4.44082 -4.4201 7.11718 -7.08167 -2.76037 2.75437 -3.68331 -8.66633 8.72997 6.07235 -6.06024 3.79371 1.85382 -1.6964 -9.57011 -1.08606 5.59097 3.36621 1.43575 -3.19275 0.888074 9.61373
internal_weight=150214 75227 74987 29079 28801 46186 46148 24732 11288 11432 17647 17513 21423 24725 21454 4836 6778 10789 12845 13495 14377 2805 4865
internal_count=150214 75227 74987 29079 28801 46186 46148 24732 11288 11432 17647 17513 21423 24725 21454 4836 6778 10789 12845 13495 14377 2805 4865
cat_boundaries=0 2 4 6
cat_threshold=1388059763 960 2676332109 44 347784885 258
is_linear=0
shrinkage=0.05


Tree=3
num_leaves=24
num_cat=11
split_feature=2 5 7 2 2 16 24 17 5 2 5 5 24 24 5 2 14 2 6 6 24 2 6
split_gain=435572 217225 192655 238918 180635 153215 150326 168264 148395 156941 140898 194181 159918 140326 162862 200189 136799 132600 132385 129302 226107 121775 152013
threshold=0 1483.5000000000002 1 2 3 4 0.009870000000000002 5 4922.5000000000009 6 1100.5000000000002 1081.5000000000002 0.0016620000000000001 0.0016420000000000002 1375.5000000000002 7 8 9 2017.5000000000002 2013.5000000000002 0.0099900000000000006 10 1993.5000000000002
decision_type=1 2 1 1 1 1 2 1 2 1 2 2 2 2 2 1 1 1 2 2 2 1 2
left_child=1 2 4 5 13 6 7 -4 21 -10 11 12 -7 17 19 -16 -9 -1 -6 -15 -21 -3 -23
right_child=-2 8 3 -5 18 10 -8 16 9 -11 -12 -13 -14 14 15 -17 -18 -19 -20 20 -22 22 -24
leaf_value=1.3853465949169266 -0.077937689489931947 0.14811660359062548 1.1245084299580783 0.30496257504669277 0.38248943173345018 -1.3180528572639254 -1.7024314348526404 -1.8485570003131178 1.3566208793037884 0.15906367227042018 0.44959124596089134 -3.5559249996346014 0.029901870134984299 0.55500205411110393 0.37297718428462923 3.3399256957608694 0.11717083816347557 -0.65642980643784477 -0.56561906862142375 0.65864879123567244 2.7811084002504627 -0.29723589847641235 0.020360375770429599
leaf_weight=101 81103 16171 148 6717 2023 271 302 180 424 767 970 45 1168 1357 111 139 174 270 450 326 204 4263 32419
leaf_count=101 81103 16171 148 6717 2023 271 302 180 424 767 970 45 1168 1357 111 139 174 270 450 326 204 4263 32419
internal_value=0.000619744 0.0929545 0.261609 0.134796 0.515559 -0.216305 -0.811062 -0.290731 0.046298 0.598205 -0.0189175 -0.325293 -0.224022 0.813637 0.972708 2.17175 -0.882577 -0.0807033 0.209103 0.813742 1.47598 0.03386 -0.0165452
internal_weight=150103 69000 14956 9975 4981 3258 804 502 54044 1191 2454 1484 1439 2508 2137 250 354 371 2473 1887 530 52853 36682
internal_count=150103 69000 14956 9975 4981 3258 804 502 54044 1191 2454 1484 1439 2508 2137 250 354 371 2473 1887 530 52853 36682
cat_boundaries=0 2 3 5 7 8 9 11 13 14 16 17
cat_threshold=3041081052 162 2 620757632 34 557908184 34 2 1 67175944 34 4259920 2 1 16 34 3019899524
is_linear=0
shrinkage=0.05


Tree=4
num_leaves=24
num_cat=3
split_feature=20 5 5 5 5 5 5 5 5 5 5 5 5 5 5 5 5 5 2 5 5 2 2
split_gain=1.06109e+09 1.2066e+08 1.19714e+08 1.76573e+07 1.7283e+07 1.62551e+07 1.57751e+07 2.75617e+06 2.52367e+06 2.25418e+06 2.19121e+06 2.15258e+06 2.03876e+06 1.97939e+06 1.78095e+06 500767 476253 456012 447433 431565 404595 394647 393145
threshold=1.0000000180025095e-35 2332.5000000000005 3176.5000000000005 3420.5000000000005 2117.5000000000005 4067.5000000000005 1340.5000000000002 1412.5000000000002 4103.5000000000009 4589.5000000000009 1718.5000000000002 2869.5000000000005 2672.5000000000005 3578.5000000000005 920.50000000000011 4806.5000000000009 1991.5000000000002 4330.5000000000009 0 1808.5000000000002 955.50000000000011 1 2
decision_type=2 2 2 2 2 2 2 2 2 2 2 2 2 2 2 2 2 2 1 2 2 1 1
left_child=1 6 4 11 7 13 14 20 -5 17 21 -3 -6 -4 18 -11 -12 -7 -1 -9 -2 -8 -16
right_child=2 3 5 8 12 9 10 19 -10 15 16 -13 -14 -15 22 -17 -18 -19 -20 -21 -22 -23 -24
leaf_value=0.94925546089508783 -9.7053202780625405 5.2146878080366035 -4.2689496495128285 7.6331675477480934 -6.2533122143340343 -2.51649271095906 3.3825096109000286 -7.9193239851381865 9.1267202657288724 -1.5911565228447526 3.6748390103286668 6.3407177006911049 -5.1550157617357213 -3.2583499331449612 1.8191489973439638 -0.9457019746796802 4.2852893420473039 -1.9396157616504224 1.5674799142116287 -7.1556279014933004 -8.7399653428940791 2.6692219132202624 2.4416984845197245
leaf_weight=5125 1701 9363 8380 6916 8075 6656 4148 3783 4794 6276 5925 7772 8875 11494 4832 5767 6955 7065 7307 3658 3068 5102 6530
leaf_count=5125 1701 9363 8380 6916 8075 6656 4148 3783 4794 6276 5925 7772 8875 11494 4832 5767 6955 7065 7307 3658 3068 5102 6530
internal_value=0.00156964 4.21381 -4.20903 6.7482 -6.71149 -2.6101 2.62193 -8.14575 8.24469 -1.78131 3.58284 5.72546 -5.67828 -3.6845 1.72822 -1.28208 4.0045 -2.21947 1.31466 -7.54399 -9.08448 2.99566 2.18071
internal_weight=149567 74769 74798 28845 29160 45638 45924 12210 11710 25764 22130 17135 16950 19874 23794 12043 12880 13721 12432 7441 4769 9250 11362
internal_count=149567 74769 74798 28845 29160 45638 45924 12210 11710 25764 22130 17135 16950 19874 23794 12043 12880 13721 12432 7441 4769 9250 11362
cat_boundaries=0 2 4 6
cat_threshold=3809085225 27 694175930 940 2125482291 576
is_linear=0
shrinkage=0.05


Tree=5
num_leaves=24
num_cat=5
split_feature=20 2 6 0 2 23 8 23 8 0 11 3 23 23 0 2 11 6 2 0 6 22 0
split_gain=9.58429e+08 206214 130905 118555 181143 109118 108127 99220 95661.7 95122 89940.8 88166.6 74478.5 73592.5 72688.7 102848 96711.3 90372.3 90267.4 102953 72002.2 72850.9 103600
threshold=1.0000000180025095e-35 0 2020.5000000000002 186194.50000000003 1 0.0018860000000000003 10.500000000000002 0.0018700000000000004 9.5000000000000018 117243.00000000001 1.5000000000000002 2 0.0021460000000000008 0.0022420000000000005 158634.50000000003 3 4.5000000000000009 1993.5000000000002 4 45263.500000000007 2000.5000000000002 9324.2423676118688 193088.50000000003
decision_type=2 1 2 2 1 2 2 2 2 2 2 1 2 2 2 1 2 2 1 2 2 2 2
left_child=1 2 -1 14 6 -4 20 -6 10 -3 -9 -12 -8 -11 18 16 -16 -17 19 -2 -5 -22 -23
right_child=3 9 5 4 7 -7 12 8 -10 13 11 -13 -14 -15 15 17 -18 -19 -20 -21 21 22 -24
leaf_value=3.8411330431241222 -3.6337570424697176 4.1663537689098984 5.2161871605895982 -3.7842461583393945 -4.595651163765349 4.1070129596499738 -3.835051056792758 -4.5363093807449726 -4.124814166080057 4.0130428609108959 -3.2887540342263053 -3.8870990399825049 -3.0100855861054954 5.0770987571621582 -3.5107758237862843 -4.9828338894979396 -4.0594615377851682 -4.3108630351747106 -4.0735232093849616 -3.9280289926046374 -3.4168597221432657 -4.7558658637065845 -2.4494034343625919
leaf_weight=27295 4195 21232 246 921 804 2400 5232 362 6644 23741 908 1950 291 165 1339 572 2038 4285 32920 10405 1556 55 429
leaf_count=27295 4195 21232 246 921 804 2400 5232 362 6644 23741 908 1950 291 165 1339 572 2038 4285 32920 10405 1556 55 429
internal_value=0.0109006 4.00322 3.87248 -3.99063 -3.88301 4.21033 -3.65635 -4.056 -4.01608 4.08816 -3.79161 -3.69713 -3.79164 4.02041 -4.0276 -4.16537 -3.83067 -4.38108 -4.00372 -3.84087 -3.41621 -3.24988 -2.71244
internal_weight=149985 75079 29941 74906 19152 2646 8484 10668 9864 45138 3220 2858 5523 23906 55754 8234 3377 4857 47520 14600 2961 2040 484
internal_count=149985 75079 29941 74906 19152 2646 8484 10668 9864 45138 3220 2858 5523 23906 55754 8234 3377 4857 47520 14600 2961 2040 484
cat_boundaries=0 2 4 5 7 9
cat_threshold=983734625 81 985796056 299 2 3140815877 326 915182092 10
is_linear=0
shrinkage=0.05


Tree=6
num_leaves=24
num_cat=1
split_feature=20 5 5 5 5 5 5 5 5 5 5 5 5 5 5 5 5 5 5 5 5 1 5
split_gain=8.64663e+08 1.11104e+08 1.08195e+08 1.57662e+07 1.54186e+07 1.54023e+07 1.52795e+07 2.76296e+06 2.68126e+06 2.23869e+06 1.9076e+06 1.74167e+06 1.67942e+06 1.63688e+06 970286 562308 496076 482007 398399 367721 316232 297683 295337
threshold=1.0000000180025095e-35 2369.5000000000005 3176.5000000000005 1412.5000000000002 1935.5000000000002 4261.5000000000009 3438.5000000000005 2672.5000000000005 3647.5000000000005 4208.5000000000009 938.50000000000011 1826.5000000000002 1303.5000000000002 2905.5000000000005 4821.5000000000009 2332.5000000000005 3929.5000000000005 3788.5000000000005 737.50000000000011 1138.5000000000002 4503.5000000000009 0 3387.5000000000005
decision_type=2 2 2 2 2 2 2 2 2 2 2 2 2 2 2 2 2 2 2 2 2 1 2
left_child=1 3 4 10 12 8 13 15 22 17 18 -5 -2 -3 20 -6 -10 -8 -1 -12 -7 -16 -4
right_child=2 6 5 11 7 14 9 -9 16 -11 19 -13 -14 -15 21 -17 -18 -19 -20 -21 -22 -23 -24
leaf_value=0.80233634817598709 -8.568683163176626 4.8595112468532946 -4.0724695543484524 2.8336746963573969 -6.2817022169973402 -1.75031874343032 6.7737207456609303 -4.6982066787003589 -3.026645570548629 8.6229509820386134 1.6071973454907562 3.7459590031143812 -7.2436807166509656 5.8595491826591761 -0.18326112612952347 -5.5398756747951268 -2.4426935722245942 7.5746537609846376 1.3577350584726844 2.1498562469448514 -1.2950106857419117 -0.9737158044001728 -3.5227761818926804
leaf_weight=7208 3953 9172 4277 9801 5031 6489 3872 8860 6464 4041 5559 11228 6076 7397 1847 5216 8327 3679 5850 7127 9256 3436 5726
leaf_count=7208 3953 9172 4277 9801 5031 6489 3872 8860 6464 4041 5559 11228 6076 7397 1847 5216 8327 3679 5850 7127 9256 3436 5726
internal_value=0.000836338 3.799 -3.79611 2.30509 -6.17836 -2.28134 6.28023 -5.34498 -3.12555 7.6727 1.47541 3.32079 -7.76602 5.306 -1.28593 -5.90415 -2.69791 7.16405 1.05116 1.91208 -1.48267 -0.699563 -3.75785
internal_weight=149892 74934 74958 46773 29136 45822 28161 19107 24794 11592 25744 21029 10029 16569 21028 10247 14791 7551 13058 12686 15745 5283 10003
internal_count=149892 74934 74958 46773 29136 45822 28161 19107 24794 11592 25744 21029 10029 16569 21028 10247 14791 7551 13058 12686 15745 5283 10003
cat_boundaries=0 1
cat_threshold=362534
is_linear=0
shrinkage=0.05


Tree=7
num_leaves=24
num_cat=2
split_feature=20 5 5 5 5 5 5 5 5 5 5 5 5 5 5 5 5 5 5 5 2 5 2
split_gain=7.78299e+08 9.88747e+07 9.80802e+07 1.42401e+07 1.41343e+07 1.4044e+07 1.37443e+07 2.54172e+06 2.26162e+06 2.08977e+06 1.94374e+06 1.78673e+06 1.78451e+06 1.29097e+06 870008 515916 471436 470773 451792 400700 373614 368462 354301
threshold=1.0000000180025095e-35 2369.5000000000005 3176.5000000000005 1502.5000000000002 3456.5000000000005 2081.5000000000005 4261.5000000000009 3788.5000000000005 938.50000000000011 1448.5000000000002 4261.5000000000009 2993.5000000000005 2672.5000000000005 1991.5000000000002 4589.5000000000009 3508.5000000000005 3788.5000000000005 646.50000000000011 1174.5000000000002 1028.5000000000002 0 2690.5000000000005 1
decision_type=2 2 2 2 2 2 2 2 2 2 2 2 2 2 2 2 2 2 2 2 1 2 1
left_child=1 3 5 8 11 9 7 15 17 19 16 21 -7 -5 -8 -4 -6 -1 22 -2 -20 -3 -10
right_child=2 4 6 13 10 12 14 -9 18 -11 -12 -13 -14 -15 -16 -17 -18 -19 20 -21 -22 -23 -24
leaf_value=0.57366499347033051 -8.4850046319774162 4.3538996067618783 -3.7262801433482915 2.910713994974742 6.4459968683983249 -5.4865239784631017 -1.59779450425847 -2.4158650956170362 2.0220220925655061 -6.6218239805941028 8.2596913858774723 5.6896385194773922 -4.472087202952312 3.7548826263553488 -0.94722744057927155 -3.1032778062213455 7.2247130153822985 1.2080817512737188 2.5422696462848173 -7.5864354392925053 1.8336598280552903 4.9459150452670961 1.2563910013859643
leaf_weight=4456 2173 5794 6937 11114 3727 8497 8894 11624 2736 6614 3591 6235 8861 7648 12174 6390 4096 8508 3513 2935 4850 4831 3804
leaf_count=4456 2173 5794 6937 11114 3727 8497 8894 11624 2736 6614 3591 6235 8861 7648 12174 6390 4096 8508 3513 2935 4850 4831 3804
internal_value=-0.0017555 3.60455 -3.59864 2.18995 5.93745 -5.87172 -2.16225 -2.95627 1.47299 -7.20887 7.29619 5.01756 -4.9687 3.25484 -1.22188 -3.42759 6.85381 0.990026 1.8931 -7.96886 2.13658 4.62312 1.58173
internal_weight=150002 74903 75099 46629 28274 29080 46019 24951 27867 11722 11414 16860 17358 18762 21068 13327 7823 12964 14903 5108 8363 10625 6540
internal_count=150002 74903 75099 46629 28274 29080 46019 24951 27867 11722 11414 16860 17358 18762 21068 13327 7823 12964 14903 5108 8363 10625 6540
cat_boundaries=0 2 4
cat_threshold=960833162 316 2168824944 438
is_linear=0
shrinkage=0.05


Tree=8
num_leaves=24
num_cat=1
split_feature=5 22 0 0 8 7 6 24 24 11 0 9 9 6 22 5 5 24 24 6 9 11 24
split_gain=316445 187798 141052 188352 202127 234197 146751 167266 146319 148027 136346 134596 132170 129855 129317 169645 128012 126910 119272 116931 143139 132861 152436
threshold=3681.5000000000005 9269.5048417315102 175462.00000000003 140010.50000000003 9.5000000000000018 0 2021.5000000000002 0.0017200000000000004 0.0014700000000000002 7.5000000000000009 141002.50000000003 27.500000000000004 8.5000000000000018 2000.5000000000002 9336.3525925394224 4986.5000000000009 4971.5000000000009 0.0018100000000000002 0.0015940000000000001 2018.5000000000002 27.500000000000004 2.5000000000000004 0.040456000000000006
decision_type=2 2 2 2 2 1 2 2 2 2 2 2 2 2 2 2 2 2 2 2 2 2 2
left_child=1 19 3 8 5 11 7 10 9 -2 -6 12 -5 -10 -15 -16 -4 -8 -12 -1 -21 -22 -23
right_child=2 -3 16 4 6 -7 17 -9 13 -11 18 -13 -14 14 15 -17 -18 -19 -20 20 21 22 -24
leaf_value=-0.11713233034444204 -0.58802215916469769 0.048908769086041221 0.23332555497083482 0.44879058381760856 -4.2311179352726587 0.61231151979535936 2.3117542361303345 -0.24857228774755297 -0.036760370366096057 -4.9593037281529053 0.11021928120727414 1.7906411973325675 -1.1954200570164608 0.15218644002539683 0.50016199011731577 4.2774742234188849 1.300892787173167 -0.053493280474915111 -1.146837681357965 0.0028382615849064305 -0.51118173041393866 0.77185783437769473 4.5175096919103872
leaf_weight=58139 68 37931 12816 168 31 1333 89 2835 7860 27 241 57 448 14194 2399 30 287 156 869 9029 209 820 28
leaf_count=58139 68 37931 12816 168 31 1333 89 2835 7860 27 241 57 448 14194 2399 30 287 156 869 9029 209 820 28
internal_value=0.00641473 -0.0402813 0.119311 0.0608638 -0.184762 0.228452 -0.381141 -0.45433 0.123096 -1.83435 -0.965499 -0.531824 -0.746991 0.130699 0.20988 0.546991 0.256719 0.806291 -0.873919 -0.0898683 0.0672893 0.617779 0.896059
internal_weight=150064 106156 43908 30805 6227 2006 4221 3976 24578 95 1141 673 616 24483 16623 2429 13103 245 1110 68225 10086 1057 848
internal_count=150064 106156 43908 30805 6227 2006 4221 3976 24578 95 1141 673 616 24483 16623 2429 13103 245 1110 68225 10086 1057 848
cat_boundaries=0 1
cat_threshold=1
is_linear=0
shrinkage=0.05


Tree=9
num_leaves=24
num_cat=0
split_feature=20 5 5 5 5 5 5 5 5 5 5 5 5 5 5 5 5 5 5 5 5 5 5
split_gain=7.01357e+08 9.08329e+07 8.70434e+07 1.30822e+07 1.27468e+07 1.21173e+07 1.20782e+07 2.41705e+06 2.06717e+06 1.69446e+06 1.62251e+06 1.48996e+06 1.46641e+06 1.3422e+06 1.16662e+06 414464 411175 376776 369877 334725 325144 308411 285550
threshold=1.0000000180025095e-35 2332.5000000000005 3176.5000000000005 3403.5000000000005 2188.5000000000005 1375.5000000000002 4067.5000000000005 1448.5000000000002 4016.5000000000005 4435.5000000000009 1917.5000000000002 2761.5000000000005 774.50000000000011 3716.5000000000005 2796.5000000000005 4806.5000000000009 4471.5000000000009 1174.5000000000002 1773.5000000000002 1028.5000000000002 1662.5000000000002 3176.5000000000005 3438.5000000000005
decision_type=2 2 2 2 2 2 2 2 2 2 2 2 2 2 2 2 2 2 2 2 2 2 2
left_child=1 5 4 11 7 12 13 19 -5 -8 20 -3 -1 22 -6 -11 -10 -14 -9 -2 -7 -13 -4
right_child=2 3 6 8 14 10 9 18 16 15 -12 21 17 -15 -16 -17 -18 -19 -20 -21 -22 -23 -24
leaf_value=0.73294637531860962 -8.0563708612580154 4.1912723246490664 -3.6190556359521282 6.2563862709898697 -4.9876043321829453 2.3243979232154142 -1.8960104881434088 -6.6103214076057668 7.2120600058642523 -1.2416101782177948 3.4449383267680682 4.9347306967707842 1.3873910457123451 -2.5177816740367298 -4.1243411903860228 -0.71709791184511995 8.0859161061256337 1.9041268686850676 -5.9126742929742324 -7.2308418151547187 2.8316910606956345 5.5496038387744484 -3.1192370839161452
leaf_weight=8276 2139 7602 5326 6417 9240 7085 9477 3123 3284 10724 8410 6300 11255 8352 6798 5806 2303 5140 4903 2930 5708 3031 6187
leaf_count=8276 2139 7602 5326 6417 9240 7085 9477 3123 3284 10724 8410 6300 11255 8352 6798 5806 2303 5140 4903 2930 5708 3031 6187
internal_value=-0.0128693 3.41262 -3.4295 5.60626 -5.56684 2.02888 -2.07208 -6.72432 6.86896 -1.36299 2.90545 4.71108 1.27552 -3.0004 -4.62172 -1.05739 7.57241 1.5494 -6.18422 -7.57935 2.55076 5.13452 -3.35049
internal_weight=149816 74811 75005 28937 29133 45874 45872 13095 12004 26007 21203 16933 24671 19865 16038 16530 5587 16395 8026 5069 12793 9331 11513
internal_count=149816 74811 75005 28937 29133 45874 45872 13095 12004 26007 21203 16933 24671 19865 16038 16530 5587 16395 8026 5069 12793 9331 11513
is_linear=0
shrinkage=0.05


Tree=10
num_leaves=24
num_cat=0
split_feature=20 5 5 5 5 5 5 5 5 5 5 5 5 5 5 5 5 5 5 5 5 5 5
split_gain=6.33803e+08 8.12016e+07 7.92448e+07 1.28318e+07 1.11385e+07 1.0947e+07 9.97848e+06 1.95534e+06 1.85899e+06 1.72017e+06 1.57202e+06 1.56488e+06 1.14031e+06 1.08388e+06 846704 398362 322959 319661 296406 284975 267996 250871 240254
threshold=1.0000000180025095e-35 2459.5000000000005 3141.5000000000005 1466.5000000000002 2153.5000000000005 4208.5000000000009 3630.5000000000005 1340.5000000000002 3716.5000000000005 938.50000000000011 3159.5000000000005 1935.5000000000002 2672.5000000000005 4261.5000000000009 4790.5000000000009 1718.5000000000002 591.50000000000011 4401.5000000000009 2726.5000000000005 1174.5000000000002 3387.5000000000005 1662.5000000000002 884.50000000000011
decision_type=2 2 2 2 2 2 2 2 2 2 2 2 2 2 2 2 2 2 2 2 2 2 2
left_child=1 3 4 9 7 8 10 22 20 16 18 21 -6 -8 17 -9 -1 -7 -3 -11 -4 -5 -2
right_child=2 6 5 11 12 14 13 15 -10 19 -12 -13 -14 -15 -16 -17 -18 -19 -20 -21 -22 -23 -24
leaf_value=0.40805159993668916 -7.8345249860387201 4.0911817094825524 -3.4487018300991723 2.2447122890729432 -4.88972340413103 -1.7199797461526831 6.3449350050545199 -6.4101059566219565 -2.2853100370355661 1.4390141011181843 5.4021054329068425 3.3695672972816122 -4.0397253913566784 7.4515975400597831 -0.70715880969189104 -5.7107846310426673 1.013229400761446 -1.2387894026458453 4.6119223083198264 1.8913627090181766 -2.970621146171855 2.7270719925289555 -7.0370901848376493
leaf_weight=2804 1433 4705 4935 4825 7583 5011 5779 3426 11885 6518 5902 10471 8238 3595 6361 5066 10316 11098 6560 7481 7247 6122 2845
leaf_count=2804 1433 4705 4935 4825 7583 5011 5779 3426 11885 6518 5902 10471 8238 3595 6361 5066 10316 11098 6560 7481 7247 6122 2845
internal_value=-0.0152799 3.23371 -3.2621 2.01774 -5.33386 -1.98927 5.45739 -6.43237 -2.73025 1.29525 4.74092 2.93254 -4.44716 6.76942 -1.19561 -5.99299 0.883896 -1.38848 4.39447 1.68076 -3.16432 2.51449 -7.30438
internal_weight=150206 75078 75128 48537 28591 46537 26541 12770 24067 27119 17167 21418 15821 9374 22470 8492 13120 16109 11265 13999 12182 10947 4278
internal_count=150206 75078 75128 48537 28591 46537 26541 12770 24067 27119 17167 21418 15821 9374 22470 8492 13120 16109 11265 13999 12182 10947 4278
is_linear=0
shrinkage=0.05


Tree=11
num_leaves=24
num_cat=4
split_feature=20 5 5 5 5 5 5 5 5 5 5 5 5 5 5 2 5 2 5 5 2 2 5
split_gain=5.76015e+08 7.26044e+07 7.16662e+07 1.01983e+07 1.01225e+07 1.00713e+07 9.92451e+06 1.62426e+06 1.56051e+06 1.40794e+06 1.26251e+06 1.225e+06 1.1867e+06 1.15694e+06 1.11935e+06 394347 353711 341296 340051 336728 314903 308409 281914
threshold=1.0000000180025095e-35 2369.5000000000005 3159.5000000000005 4067.5000000000005 2081.5000000000005 3559.5000000000005 1375.5000000000002 2993.5000000000005 1357.5000000000002 1718.5000000000002 2512.5000000000005 4589.5000000000009 4261.5000000000009 920.50000000000011 3716.5000000000005 0 2117.5000000000005 1 2851.5000000000005 4740.5000000000009 2 3 4313.5000000000009
decision_type=2 2 2 2 2 2 2 2 2 2 2 2 2 2 2 1 2 1 2 2 1 1 2
left_child=1 6 4 14 8 7 13 -3 -2 21 -6 22 -7 20 -4 -15 -11 19 -12 -13 -1 -8 -5
right_child=2 5 3 11 10 12 9 -9 -10 16 18 17 -14 15 -16 -17 -18 -19 -20 -21 -22 -23 -24
leaf_value=0.5930297119029867 -6.9245289886876327 3.9948000371341656 -3.0250877689439655 -1.792117659867148 -4.8587954341823156 5.9580249020020268 2.5069413370157343 4.954868785457224 -5.7349330667699965 2.7786777427180449 -4.2349080290747212 -1.0827031656320423 7.0898444879111615 1.8993556343924365 -2.2714313791441962 1.307189581186107 3.3069758127477424 -1.0525999448251826 -3.6800961212787424 -0.17326459293661425 1.1004316838227726 1.8625432093474317 -1.3356602436589611
leaf_weight=5903 4414 10641 11941 6173 6012 6508 3700 7524 7362 8628 5552 1586 3603 4886 8391 7400 5015 7736 5516 2841 6576 4725 7489
leaf_count=5903 4414 10641 11941 6173 6012 6508 3700 7524 7362 8628 5552 1586 3603 4886 8391 7400 5015 7736 5516 2841 6576 4725 7489
internal_value=0.00072244 3.09591 -3.09842 -1.87645 -5.05303 5.09656 1.88798 4.39249 -6.18088 2.65904 -4.27538 -1.21699 6.36141 1.20089 -2.71407 1.54531 2.9729 -0.852011 -3.95844 -0.49797 0.861777 2.15076 -1.54192
internal_weight=150122 75109 75013 46157 28856 28276 46833 18165 11776 22068 17080 25825 10111 24765 20332 12286 13643 12163 11068 4427 12479 8425 13662
internal_count=150122 75109 75013 46157 28856 28276 46833 18165 11776 22068 17080 25825 10111 24765 20332 12286 13643 12163 11068 4427 12479 8425 13662
cat_boundaries=0 2 4 6 8
cat_threshold=593437190 166 2825052812 38 2881882921 539 591416056 814
is_linear=0
shrinkage=0.05


Tree=12
num_leaves=24
num_cat=3
split_feature=20 0 13 22 24 23 0 1 23 1 0 11 9 24 0 23 0 22 23 23 0 9 0
split_gain=5.15484e+08 116360 125916 90326.7 86783.1 126007 83242.5 85507.7 89463.2 82893.1 122342 138158 95587.7 82838 104141 86956.3 86663.3 92663 81375.6 82455.6 116485 102823 77374.8
threshold=1.0000000180025095e-35 173440.50000000003 0 9269.5048417315102 0.010158000000000002 0.0018300000000000002 200938.50000000003 1 0.0018140000000000003 2 195999.50000000003 6.5000000000000009 7.5000000000000009 0.0017540000000000001 22640.500000000004 0.0021140000000000004 144936.50000000003 9418.3052472574072 0.0019540000000000004 0.0019500000000000001 58101.500000000007 22.500000000000004 136111.50000000003
decision_type=2 2 1 2 2 2 2 1 2 1 2 2 2 2 2 2 2 2 2 2 2 2 2
left_child=1 13 4 -2 -3 -6 9 8 -8 -4 11 -11 -13 14 15 -1 17 -16 19 -15 -21 -22 -23
right_child=3 2 6 -5 5 -7 7 -9 -10 10 -12 12 -14 18 16 -17 -18 -19 -20 20 21 22 -24
leaf_value=2.4521577024310295 -2.9719765155284446 2.7621115056820638 2.3621299229865755 -2.8571005956108504 -0.32002964971237002 2.4222735549340704 0.76184666624878483 3.1186992100414912 2.7177115038661808 2.7947956097390785 2.3238878867663133 2.6431978402647616 3.7086643758041826 3.1204328639512471 2.9438277731447759 3.4333123565697665 2.6853630509149689 3.3923002030249361 2.9750366009171776 5.2943803450726428 3.9781481230730984 2.9351358411207 -0.55927198607608142
leaf_weight=1962 48115 5995 1625 26719 43 1586 60 7443 2448 1899 684 271 964 8628 10867 256 2867 1294 25790 106 159 43 25
leaf_count=1962 48115 5995 1625 26719 43 1586 60 7443 2448 1899 684 271 964 8628 10867 256 2867 1294 25790 106 159 43 25
internal_value=0.00516372 2.93421 2.84047 -2.93096 2.67406 2.34987 2.92286 3.00901 2.66035 2.7653 2.92298 3.06298 3.4751 2.9757 2.88591 2.56555 2.93318 2.99158 3.02025 3.15034 3.92413 3.28221 1.65142
internal_weight=149849 75015 23018 74834 7624 1629 15394 9951 2508 5443 3818 3134 1235 51997 17246 2218 15028 12161 34751 8961 333 227 68
internal_count=149849 75015 23018 74834 7624 1629 15394 9951 2508 5443 3818 3134 1235 51997 17246 2218 15028 12161 34751 8961 333 227 68
cat_boundaries=0 1 2 3
cat_threshold=4 266328 660610
is_linear=0
shrinkage=0.05


Tree=13
num_leaves=24
num_cat=10
split_feature=5 2 2 5 6 2 6 5 2 6 0 12 5 2 7 6 2 23 15 3 5 12 2
split_gain=869528 324784 289068 162069 141999 175283 130401 129948 291590 131834 126815 122690 170335 127538 132357 126219 128315 113035 138023 110441 108957 104954 166766
threshold=2813.5000000000005 0 1 3595.5000000000005 2001.5000000000002 2 1990.5000000000002 4955.5000000000009 3 2017.5000000000002 40332.000000000007 8.5000000000000018 628.50000000000011 4 5 2020.5000000000002 6 0.0019660000000000003 7 8 829.50000000000011 1.5000000000000002 9
decision_type=2 1 1 2 2 1 2 2 1 2 2 2 2 1 1 2 1 2 1 1 2 2 1
left_child=2 3 -1 -2 5 -3 19 -6 9 -9 -10 12 13 14 -4 16 -13 -12 -19 -5 -17 22 -14
right_child=1 4 11 6 7 -7 -8 8 10 -11 17 15 21 -15 -16 20 -18 18 -20 -21 -22 -23 -24
leaf_value=-0.017175569438065093 0.092820434075012406 0.15517955457119129 1.2825173965041774 2.0300474369674082 0.083034343617876205 -0.21976785866940843 0.30457398931661384 0.19932612248995477 4.0340402898808634 -2.5215528804619849 2.9394691399331507 -0.7461701649528254 -0.070874746524643678 -0.93576137479710852 -0.5033193156559066 1.8659334538166741 -0.29709421009857101 2.0852211547154984 -0.72177587113889585 0.58112795656785243 0.014867597995824358 -0.103354501395231 -0.74247711525063398
leaf_weight=37883 11581 4623 147 195 25776 9528 20269 164 56 61 82 2403 1979 1180 352 92 4833 88 87 404 581 26054 1740
leaf_count=37883 11581 4623 147 195 25776 9528 20269 164 56 61 82 2403 1979 1180 352 92 4833 88 87 404 581 26054 1740
internal_value=0.00109442 0.124935 -0.115804 0.242746 0.0303947 -0.0973211 0.326065 0.0990889 0.868108 -0.516174 1.82138 -0.210671 -0.166457 -0.656429 0.0224604 -0.386762 -0.447678 1.40868 0.690099 1.05308 0.268158 -0.138823 -0.387296
internal_weight=150158 72914 77244 32449 40465 14151 20868 26314 538 225 313 39361 31452 1679 499 7909 7236 257 175 599 673 29773 3719
internal_count=150158 72914 77244 32449 40465 14151 20868 26314 538 225 313 39361 31452 1679 499 7909 7236 257 175 599 673 29773 3719
cat_boundaries=0 2 4 6 8 10 11 13 14 15 17
cat_threshold=2963446348 813 3578618078 166 239665280 64 4998416 144 3179520 320 2 545260801 65 2 2 578814721 793
is_linear=0
shrinkage=0.05


Tree=14
num_leaves=24
num_cat=5
split_feature=1 8 24 1 6 22 11 0 16 0 24 0 8 0 22 24 6 11 0 22 17 1 9
split_gain=132685 125808 151185 154281 117638 114722 112991 168242 95835.5 94871.2 212986 157645 103231 120710 122170 93372.9 112353 91786.8 84156 128505 91541.2 84400 84162.2
threshold=0 18.500000000000004 0.0014300000000000003 1 2012.5000000000002 9236.2811542885156 1.5000000000000002 8802.5000000000018 2 104392.50000000001 0.0099020000000000028 189130.50000000003 24.500000000000004 1954.5000000000002 9262.1397022328529 0.0099520000000000008 2018.5000000000002 1.5000000000000002 74807.000000000015 9195.242935472239 3 4 15.500000000000002
decision_type=1 2 2 1 2 2 2 2 1 2 2 2 2 2 2 2 2 2 2 2 1 1 2
left_child=9 4 -3 -4 5 8 7 -7 -2 12 11 -11 -1 14 -14 16 -12 18 19 20 -5 -20 -21
right_child=1 2 3 17 -6 6 -8 -9 -10 10 15 -13 13 -15 -16 -17 -18 -19 21 22 -22 -23 -24
leaf_value=-0.044309288248719887 0.13005084675838366 -2.6856155266823478 0.087650569526782129 0.14063355861625476 0.17240151714377472 -2.5627566956330874 0.14006129898656902 -0.15504551034742983 -0.13192334831050154 -0.15070115566398856 -0.81787365171931536 0.13392253554815312 3.2489122133324111 0.1931297411988695 -1.0131174089072585 -0.28394258316469501 -3.7829365247669644 -0.15377603623820402 0.34789212571753836 0.86407447727506348 2.2265430538931361 -0.37688810453320376 -0.50109374471527002
leaf_weight=17826 4630 54 14436 77 19719 75 19516 2142 14108 11699 279 8328 62 4089 23 10217 36 20799 780 213 166 807 240
leaf_count=17826 4630 54 14436 77 19719 75 19516 2142 14108 11699 279 8328 62 4089 23 10217 36 20799 780 213 166 807 240
internal_value=-0.00699905 0.0274447 -0.0443432 -0.0405343 0.0722611 0.0234685 0.101635 -0.236611 -0.0671921 -0.0710577 -0.128069 -0.0323433 0.00810062 0.231926 2.09576 -0.310091 -1.15785 -0.12069 0.180199 0.638555 1.56593 -0.0208435 0.140845
internal_weight=150321 97762 37572 37518 60190 40471 21733 2217 18738 52559 30559 20027 22000 4174 85 10532 315 23082 2283 696 243 1587 453
internal_count=150321 97762 37572 37518 60190 40471 21733 2217 18738 52559 30559 20027 22000 4174 85 10532 315 23082 2283 696 243 1587 453
cat_boundaries=0 1 2 3 4 5
cat_threshold=598043 165184 2 4 16932
is_linear=0
shrinkage=0.05


Tree=15
num_leaves=24
num_cat=6
split_feature=20 5 5 5 5 5 5 5 5 5 5 5 5 5 5 5 2 5 2 2 2 2 2
split_gain=4.67021e+08 6.61407e+07 6.45578e+07 1.03828e+07 9.1593e+06 8.78099e+06 7.65939e+06 1.59694e+06 1.50832e+06 1.33035e+06 1.21862e+06 1.16763e+06 1.05404e+06 1.05092e+06 856316 527914 504418 448928 510406 363673 326541 302432 289077
threshold=1.0000000180025095e-35 2495.5000000000005 3141.5000000000005 1502.5000000000002 4032.5000000000005 2117.5000000000005 3630.5000000000005 1138.5000000000002 1430.5000000000002 4806.5000000000009 1973.5000000000002 3176.5000000000005 3578.5000000000005 2548.5000000000005 4366.5000000000009 4295.5000000000009 0 737.50000000000011 1 2 3 4 5
decision_type=2 2 2 2 2 2 2 2 2 2 2 2 2 2 2 2 1 2 1 1 1 1 1
left_child=1 3 5 7 12 8 11 17 -2 15 -5 -3 -4 -7 -8 20 -11 19 -19 -1 -6 -9 -17
right_child=2 6 4 10 9 13 14 21 -10 16 -12 -13 -14 -15 -16 22 -18 18 -20 -21 -22 -23 -24
leaf_value=0.90042785284815174 -6.3440252063337184 3.8856467572432614 -2.8491988523428429 2.1794654500086668 -1.1223104770975205 -4.4193776773821849 5.6523706707415196 1.2811129942446815 -5.2124780068922441 -0.87073927808103491 2.9402893361381786 4.7691009203422023 -2.1156991070712117 -3.586747053694554 6.6820172273281884 -0.76158567023148738 0.063335454607937672 0.64088319672654492 1.3180579105913037 0.1833609068133161 -1.8663878684017861 1.8735960906037545 -1.2288171631590465
leaf_weight=3202 4981 10907 9082 10696 2516 6058 6497 4100 7220 2656 10366 5697 10636 10137 2937 5572 3161 5202 6169 3973 4109 5229 8764
leaf_count=3202 4981 10907 9082 10696 2516 6058 6497 4100 7220 2656 10366 5697 10636 10137 2937 5572 3161 5202 6169 3973 4109 5229 8764
internal_value=0.00972707 2.79934 -2.78298 1.71608 -1.63575 -4.66145 4.83526 1.083 -5.67448 -1.03355 2.55393 4.1888 -2.45356 -3.89823 5.97299 -1.21921 -0.364551 0.814585 1.01 0.504887 -1.58834 1.6166 -1.04861
internal_weight=149867 74975 74892 48937 46496 28396 26038 27875 12201 26778 21062 16604 19718 16195 9434 20961 5817 18546 11371 7175 6625 9329 14336
internal_count=149867 74975 74892 48937 46496 28396 26038 27875 12201 26778 21062 16604 19718 16195 9434 20961 5817 18546 11371 7175 6625 9329 14336
cat_boundaries=0 2 4 6 8 10 12
cat_threshold=463228021 448 1052524941 329 1488654428 484 2500599564 161 211779701 707 952137820 840
is_linear=0
shrinkage=0.05


Tree=16
num_leaves=24
num_cat=11
split_feature=5 2 2 24 24 2 17 24 2 5 4 24 5 2 2 2 9 23 2 2 16 24 24
split_gain=692907 393016 345356 131221 157487 101017 93277.7 92422.3 199007 117777 84503.2 81372.7 211242 260252 165350 161591 158131 141543 155188 109510 113022 112422 104259
threshold=3788.5000000000005 0 1 0.0014700000000000002 0.0014960000000000002 2 3 0.0015860000000000002 4 4487.5000000000009 1.5000000000000002 0.0099520000000000008 646.50000000000011 5 6 7 6.5000000000000009 0.0020740000000000008 8 9 10 0.0032500000000000007 0.0097560000000000025
decision_type=2 1 1 2 2 1 1 2 1 2 2 2 2 1 1 1 2 2 1 1 1 2 2
left_child=2 -2 -1 10 -5 6 -6 8 -7 -10 -3 15 13 -13 -14 -4 -15 19 -19 -17 22 -22 -21
right_child=1 3 11 4 5 7 -8 -9 9 -11 -12 12 14 16 -16 17 -18 18 -20 20 21 -23 -24
leaf_value=0.036775626439987566 0.41342703812724468 -4.3493399731524578 -0.29201028101126164 1.7551685623659736 -0.35482273209670079 1.8121590887407111 0.038164574916284499 0.1077068907881694 -0.48501969755531893 0.94077574910485762 -0.93266555999674794 -2.0423480202950124 -0.048890228878607125 -1.9812321451479313 -0.34416794398503953 0.013630203755997961 0.19754946510026772 0.39831561911787738 -0.076778928134107416 -0.0075067799482795641 -0.20549620108910074 -0.64183876747616053 -0.8500513489817445
leaf_weight=49371 12538 23 8666 140 2266 244 4525 19941 335 255 84 340 9935 105 9081 10994 401 3308 3565 6515 4715 2149 389
leaf_count=49371 12538 23 8666 140 2266 244 4525 19941 335 255 84 340 9935 105 9081 10994 401 3308 3565 6515 4715 2149 389
internal_value=0.00401398 0.181137 -0.0612361 0.0762443 0.0830239 0.0745251 -0.0928321 0.129214 0.644924 0.129073 -1.67051 -0.141649 -0.224503 -0.997537 -0.190107 -0.10085 -0.249923 -0.0483751 0.152355 -0.104111 -0.197995 -0.341618 -0.054912
internal_weight=149885 40351 109534 27813 27706 27566 6791 20775 834 590 107 60163 19862 846 19016 40301 506 31635 6873 24762 13768 6864 6904
internal_count=149885 40351 109534 27813 27706 27566 6791 20775 834 590 107 60163 19862 846 19016 40301 506 31635 6873 24762 13768 6864 6904
cat_boundaries=0 2 4 6 7 9 11 13 15 17 19 20
cat_threshold=940313100 301 2235593468 682 1074806834 2 4 17006848 64 537101314 276 671287555 277 136315137 1 839778306 20 1385202688 256 10
is_linear=0
shrinkage=0.05


Tree=17
num_leaves=24
num_cat=5
split_feature=1 23 8 22 9 0 16 24 6 23 18 13 11 6 0 24 9 23 23 23 12 1 0
split_gain=124207 91247.3 79411.3 76094 134382 140963 90087.6 95776 73951.6 109389 105023 109578 98551.6 95674.7 72110.9 164879 133700 141007 130374 120317 97679.6 136390 115141
threshold=0 0.0018100000000000002 10.500000000000002 9086.7231033564349 24.500000000000004 240218.50000000003 1 0.0016100000000000001 2013.5000000000002 0.0021140000000000004 2 3 7.5000000000000009 2015.5000000000002 101411.50000000001 0.0031960000000000005 29.500000000000004 0.0021020000000000001 0.0019540000000000004 0.0018220000000000003 6.5000000000000009 4 50154.500000000007
decision_type=1 2 2 2 2 2 1 2 2 2 1 1 2 2 2 2 2 2 2 2 2 1 2
left_child=1 2 -1 4 5 -3 7 -6 10 13 11 -8 -12 -10 15 16 -5 18 -18 -16 21 -17 -22
right_child=-2 3 -4 14 6 -7 8 -9 9 -11 12 -13 -14 -15 19 20 17 -19 -20 -21 22 -23 -24
leaf_value=1.2069336188460755 -0.04927533101101985 -0.17197879568816274 0.18366129121346714 -0.065430881212659192 2.149975009421996 -1.4288860184064667 2.2019816831498664 -0.54257867232759838 2.5853215953866067 3.6148410080079723 0.23836454805278087 0.29539799771763603 -1.4962155962420753 0.38412088398516109 -0.8709428310541707 0.54407706727670124 2.2276576930435126 3.5824576639534396 -0.11041815280561365 0.018870070586399099 -0.1578069978788485 0.1384901972046382 0.29742439930802317
leaf_weight=305 82495 5736 501 9803 36 232 110 388 62 40 262 239 119 241 384 4158 83 44 211 34748 2762 4170 2794
leaf_count=305 82495 5736 501 9803 36 232 110 388 62 40 262 239 119 241 384 4158 83 44 211 34748 2762 4170 2794
internal_value=-0.00813371 0.0422021 0.570988 0.0358102 -0.114615 -0.220864 0.308943 -0.306279 0.549791 1.16038 0.270304 0.8968 -0.303645 0.835252 0.0547926 0.121548 -0.031715 0.945861 0.550167 0.00914164 0.233492 0.341816 0.07112
internal_weight=149923 67428 806 66622 7465 5968 1497 424 1073 343 730 349 381 303 59157 24025 10141 338 294 35132 13884 8328 5556
internal_count=149923 67428 806 66622 7465 5968 1497 424 1073 343 730 349 381 303 59157 24025 10141 338 294 35132 13884 8328 5556
cat_boundaries=0 1 2 3 4 5
cat_threshold=362433 8 1 1 1921
is_linear=0
shrinkage=0.05


Tree=18
num_leaves=24
num_cat=8
split_feature=5 2 2 0 2 24 2 0 5 2 0 0 12 5 8 0 2 4 8 8 2 17 24
split_gain=865014 270464 252236 124185 185237 144530 194977 134122 123742 227203 176751 156128 126234 116080 170092 99060.6 126689 123978 102795 162612 97216 140304 109553
threshold=2796.5000000000005 0 1 116244.50000000001 2 0.0033460000000000004 3 170485.50000000003 4955.5000000000009 4 46251.500000000007 233249.00000000003 1.5000000000000002 1120.5000000000002 15.500000000000002 1954.5000000000002 5 3.5000000000000004 23.500000000000004 7.5000000000000009 6 7 0.0018100000000000002
decision_type=2 1 1 2 1 2 1 2 2 1 2 2 2 2 2 2 1 2 2 2 1 1 2
left_child=1 13 -2 4 -3 20 -7 -8 -4 12 -11 -12 -10 14 -1 16 17 -6 19 -18 21 -5 -22
right_child=2 3 8 5 15 6 7 -9 9 10 11 -13 -14 -15 -16 -17 18 -19 -20 -21 22 -23 -24
leaf_value=-0.1833780962853083 0.2235669850105525 -0.19477779711716925 0.024939021706089845 0.44438199406248718 -1.6912539472392176 -0.030739059312180829 -0.14826365741302788 -0.57810961994701893 -2.9900395498188153 3.6664184718570128 0.66612522594585932 4.4939082388206044 0.049091696347878147 -0.18379123678724973 -0.69591234047057693 0.10050008459277303 3.1724680408704931 1.7074267780144643 3.5956882142181281 -0.23121960385570675 -0.24836184020401159 -0.032876907974252016 0.18450406976401712
leaf_weight=3338 35890 6507 36798 2313 71 6399 3022 4543 38 75 316 29 331 17273 3143 17782 57 43 56 91 5505 4607 1990
leaf_count=3338 35890 6507 36798 2313 71 6399 3022 4543 38 75 316 29 331 17273 3143 17782 57 43 56 91 5505 4607 1990
internal_value=0.00616725 -0.111238 0.128786 -0.0483484 0.0338463 -0.119635 -0.234279 -0.405867 0.0382141 0.657745 1.43384 0.989104 -0.257613 -0.251392 -0.431942 0.116082 0.990707 -0.375931 1.68987 1.08088 -0.00857694 0.126467 -0.133252
internal_weight=150217 76740 73477 52986 24607 28379 13964 7565 37587 789 420 345 369 23754 6481 18100 318 114 204 148 14415 6920 7495
internal_count=150217 76740 73477 52986 24607 28379 13964 7565 37587 789 420 345 369 23754 6481 18100 318 114 204 148 14415 6920 7495
cat_boundaries=0 2 4 5 7 9 11 13 14
cat_threshold=715161857 345 3001586252 942 68433932 1162222744 32 17189249 80 3242393600 2 3507517590 32 1
is_linear=0
shrinkage=0.05


Tree=19
num_leaves=24
num_cat=4
split_feature=20 2 2 11 11 6 8 6 9 8 7 8 12 11 24 0 11 8 24 8 8 24 17
split_gain=4.22315e+08 191157 111636 125115 105533 82409.5 73343.3 85944.6 70881.8 70166.4 120179 79890.1 84922.8 69317.9 66877.8 86164.6 74290.9 71967.1 66517.6 61033.6 55963.9 54892.2 58288.3
threshold=1.0000000180025095e-35 0 1 9.5000000000000018 9.5000000000000018 2009.5000000000002 16.500000000000004 2013.5000000000002 27.500000000000004 14.500000000000002 2 9.5000000000000018 7.5000000000000009 4.5000000000000009 0.0014860000000000001 59085.500000000007 2.5000000000000004 9.5000000000000018 0.0015820000000000003 12.500000000000002 1.5000000000000002 0.0015100000000000003 3
decision_type=2 1 1 2 2 2 2 2 2 2 1 2 2 2 2 2 2 2 2 2 2 2 1
left_child=1 14 6 -4 -3 -5 7 21 -9 11 -11 12 -10 -13 15 -1 19 -18 -8 -17 -6 22 -2
right_child=2 4 3 5 20 -7 18 8 9 10 -12 13 -14 -15 -16 16 17 -19 -20 -21 -22 -23 -24
leaf_value=3.530714753657425 -0.3010475771014075 2.7053194448935516 -2.6906030953852196 -3.1725759197656962 3.653729936945485 -2.710980088449662 -3.1151512045049876 -2.4023869870754497 -2.1028649239860626 -2.997259430868346 1.1184574885080858 -1.6199741848405926 -0.34367932937925383 -3.7153004099810847 2.5560004932565481 -2.1832359619470902 3.2714244114055187 1.1701862191398584 -2.6279041405760037 1.1656927853012371 2.9201121840384094 -2.5851869517352175 -2.305660466139003
leaf_weight=58 53 37548 35496 2390 280 1636 737 5263 229 28 48 64 98 104 32843 23 61 123 15443 33 3973 13655 115
leaf_count=58 53 37548 35496 2390 280 1636 737 5263 229 28 48 64 98 104 32843 23 61 123 15443 33 3973 13655 115
internal_value=-0.00650074 2.65124 -2.64953 -2.71992 2.73145 -2.98508 -2.57042 -2.50611 -2.34493 -1.81496 -0.39974 -2.03211 -1.57593 -2.91855 2.54846 1.80218 1.38313 1.86822 -2.65012 -0.211111 2.9685 -2.57412 -1.67384
internal_weight=150301 74942 75359 39522 41801 4026 35837 19657 5834 571 76 495 327 168 33141 298 240 184 16180 56 4253 13823 168
internal_count=150301 74942 75359 39522 41801 4026 35837 19657 5834 571 76 495 327 168 33141 298 240 184 16180 56 4253 13823 168
cat_boundaries=0 2 4 5 6
cat_threshold=3417410464 81 3209039564 170 1 2
is_linear=0
shrinkage=0.05


Tree=20
num_leaves=24
num_cat=4
split_feature=20 2 2 8 0 2 13 0 0 23 0 4 6 23 9 0 23 9 23 0 23 9 23
split_gain=3.83225e+08 191190 148917 102025 75912.1 108006 73960 138600 128981 123764 119432 82837.3 74763.3 82563 72305.5 93778.6 71475.4 70729.8 132823 136461 66556.1 65502.2 61410.7
threshold=1.0000000180025095e-35 0 1 17.500000000000004 248062.50000000003 2 3 49184.000000000007 16749.500000000004 0.0018420000000000001 177425.50000000003 2.5000000000000004 1999.5000000000002 0.0019620000000000006 4.5000000000000009 102381.50000000001 0.0020940000000000008 28.500000000000004 0.0020580000000000004 94530.500000000015 0.0022460000000000002 24.500000000000004 0.0019940000000000005
decision_type=2 1 1 2 2 1 1 2 2 2 2 2 2 2 2 2 2 2 2 2 2 2 2
left_child=1 -1 3 20 -3 -6 7 9 -8 11 14 -5 16 -14 15 -9 -11 -10 -19 -20 -2 22 -7
right_child=2 4 -4 6 5 21 8 10 17 12 -12 -13 13 -15 -16 -17 -18 18 19 -21 -22 -23 -24
leaf_value=2.4096680954179495 -2.3768689548818918 2.6008099817223531 -2.6081133149129467 2.7868342100684327 0.40648450448588563 3.0844793962357833 -3.1386322199191001 -3.3580746163347905 -2.454322253698237 -2.5692954421731855 -2.4702390710626534 -1.5207067761763158 -2.9053257468025659 -1.6001381604479215 -3.1703296240838728 -1.6270038540675824 -4.5835808058183112 -2.3008013568685377 -2.4007297755540358 0.7901806611021116 -0.98121278399512901 4.1945448510612122 1.1809278523915203
leaf_weight=28725 19574 45666 41213 20 113 82 666 136 8246 225 1345 25 170 424 2050 185 55 453 57 81 86 48 88
leaf_count=28725 19574 45666 41213 20 113 82 666 136 8246 225 1345 25 170 424 2050 185 55 453 57 81 86 48 88
internal_value=-0.0101189 2.52429 -2.53476 -2.44381 2.59477 1.83958 -2.54709 -2.71112 -2.46706 -2.16069 -2.84718 0.395579 -2.29234 -1.97411 -3.0609 -2.36125 -2.96647 -2.41641 -1.88714 -0.528552 -2.37077 2.45087 2.10041
internal_weight=149733 74722 75011 33798 45997 331 14138 4635 9503 919 3716 45 874 594 2371 321 280 8837 591 138 19660 218 170
internal_count=149733 74722 75011 33798 45997 331 14138 4635 9503 919 3716 45 874 594 2371 321 280 8837 591 138 19660 218 170
cat_boundaries=0 2 4 6 7
cat_threshold=3937829153 65 3169193932 34 17327232 8 4
is_linear=0
shrinkage=0.05


Tree=21
num_leaves=24
num_cat=5
split_feature=20 5 5 5 5 5 5 5 5 5 5 5 5 5 5 5 2 5 2 2 2 0 2
split_gain=3.44638e+08 5.9481e+07 5.81382e+07 9.20013e+06 8.99763e+06 7.2118e+06 6.97926e+06 1.5536e+06 1.53404e+06 1.35185e+06 1.08645e+06 1.05337e+06 933679 906401 526564 446821 566077 407227 362183 323574 287115 327100 262742
threshold=1.0000000180025095e-35 2459.5000000000005 3230.5000000000005 1502.5000000000002 2188.5000000000005 3559.5000000000005 4261.5000000000009 1138.5000000000002 1626.5000000000002 3716.5000000000005 1917.5000000000002 3050.5000000000005 2796.5000000000005 4208.5000000000009 737.50000000000011 4806.5000000000009 0 1100.5000000000002 1 2 3 149832.50000000003 4
decision_type=2 2 2 2 2 2 2 2 2 2 2 2 2 2 2 2 1 2 1 1 1 2 1
left_child=1 3 4 7 8 11 9 14 17 -4 -5 -3 -6 -7 20 -8 -17 -2 -16 -9 21 -1 -11
right_child=2 5 6 10 12 13 15 19 -10 22 -12 -13 -14 -15 18 16 -18 -19 -20 -21 -22 -23 -24
leaf_value=1.1269018109092241 -6.0898201310691125 3.3182380946606997 -2.2648254415387794 1.7739388839366876 -3.6727506937352099 4.959488876166219 -0.73148721032277209 1.6612730844616406 -4.5160572219598549 -1.1546150917077949 2.5045704510020066 4.1322430581383385 -2.9314007878839687 5.9253128228384329 0.39598949091917002 0.37368225017271345 -0.62425798256099763 -5.2905059753641233 0.96446666596222796 1.0463791296492597 -0.050869471012217331 -0.088806789659664154 -1.6542634931988829
leaf_weight=1351 2595 9786 10441 9633 9259 6135 15208 3662 6378 4041 10788 6698 7853 4030 5122 2392 3475 4162 6315 5655 4910 937 9194
leaf_count=1351 2595 9786 10441 9633 9259 6135 15208 3662 6378 4041 10788 6698 7853 4030 5122 2392 3475 4162 6315 5655 4910 937 9194
internal_value=0.00205257 2.39816 -2.39483 1.35319 -4.08813 4.29498 -1.25032 0.763802 -5.07245 -1.83944 2.15993 3.64902 -3.33255 5.34245 0.500221 -0.588491 -0.21782 -5.59757 0.711073 1.29098 0.165188 0.626314 -1.50384
internal_weight=150020 75022 74998 48373 30247 26649 44751 27952 13135 23676 20421 16484 17112 10165 18635 21075 5867 6757 11437 9317 7198 2288 13235
internal_count=150020 75022 74998 48373 30247 26649 44751 27952 13135 23676 20421 16484 17112 10165 18635 21075 5867 6757 11437 9317 7198 2288 13235
cat_boundaries=0 2 4 6 8 10
cat_threshold=2758182788 59 4005169551 64 994337354 312 213585924 480 1065354253 44
is_linear=0
shrinkage=0.05


Tree=22
num_leaves=24
num_cat=9
split_feature=5 5 2 5 2 2 2 5 23 9 13 0 2 23 23 5 23 8 2 9 2 2 6
split_gain=2.46457e+06 354136 282470 256881 329089 166651 151604 136154 148882 130559 209464 151694 156540 161265 141264 120092 178593 173762 196344 162114 290846 151012 328870
threshold=2869.5000000000005 1791.5000000000002 0 3788.5000000000005 1 2 3 628.50000000000011 0.0022580000000000005 26.500000000000004 4 240218.50000000003 5 0.0021700000000000005 0.0020220000000000008 1120.5000000000002 0.0021880000000000003 17.500000000000004 6 7.5000000000000009 7 8 2014.5000000000002
decision_type=2 2 1 2 1 1 1 2 2 2 1 2 1 2 2 2 2 2 1 2 1 1 2
left_child=1 2 15 5 -5 -2 -3 9 -9 11 -11 12 -4 -14 -13 17 -17 19 -19 20 -1 22 -21
right_child=3 6 7 4 -6 -7 -8 8 -10 10 -12 14 13 -15 -16 16 -18 18 -20 21 -22 -23 -24
leaf_value=0.11451544402723382 0.24286160167639365 -0.26417273329168223 -0.81152743830223573 0.13095404534289659 0.41891449623001659 0.0048574813991822023 -0.023582887860910933 -0.11900331639225464 -2.8213900156450364 0.19403276458226648 -2.645781403566672 -4.569867757579126 0.012552832058723873 3.7903567989257603 -0.39470711895949817 -0.33784118885163955 1.0700474921528125 -0.47132668625131613 -1.1550483463134456 1.6979784556219295 -1.3878751518582941 -0.31437677132718134 -1.6126594343375982
leaf_weight=510 12207 8610 809 17831 22447 18493 27267 19607 51 105 170 41 966 29 40 10698 230 2341 1976 262 881 4282 105
leaf_count=510 12207 8610 809 17831 22447 18493 27267 19607 51 105 170 41 966 29 40 10698 230 2341 1976 262 881 4282 105
internal_value=-0.00529371 -0.197452 -0.294046 0.208528 0.291572 0.0995745 -0.0814022 -0.167357 -0.126029 -0.544234 -1.56179 -0.395706 -0.300585 0.12181 -2.51115 -0.423628 -0.3082 -0.545824 -0.788071 -0.37267 -0.846216 -0.230967 0.730694
internal_weight=149958 78980 43103 70978 40278 30700 35877 21818 19658 2160 275 1885 1804 995 81 21285 10928 10357 4317 6040 1391 4649 367
internal_count=149958 78980 43103 70978 40278 30700 35877 21818 19658 2160 275 1885 1804 995 81 21285 10928 10357 4317 6040 1391 4649 367
cat_boundaries=0 2 4 6 8 9 11 13 15 16
cat_threshold=4020897549 593 1144054195 465 2258635101 962 2443525 288 1 1062994 136 3313632769 65 1680474112 576 1028
is_linear=0
shrinkage=0.05


Tree=23
num_leaves=24
num_cat=5
split_feature=5 5 5 0 24 23 1 6 5 23 1 24 5 11 1 12 0 23 5 1 6 1 5
split_gain=2.52051e+06 289191 286108 122661 146305 144329 148505 282320 131709 180811 120395 121021 114332 131593 112387 112350 118188 181774 131333 148172 155147 130053 115667
threshold=2796.5000000000005 3929.5000000000005 1808.5000000000002 175462.00000000003 0.001544 0.0021380000000000006 0 2000.5000000000002 4856.5000000000009 0.0021100000000000003 1 0.0015580000000000001 4418.5000000000009 1.5000000000000002 2 1.5000000000000002 115271.50000000001 0.0018040000000000003 1028.5000000000002 3 2009.5000000000002 4 536.50000000000011
decision_type=2 2 2 2 2 2 1 2 2 2 1 2 2 2 1 2 2 2 2 1 2 1 2
left_child=2 14 15 5 -5 6 7 8 -3 -10 -6 -12 13 -13 -2 16 18 -18 19 -1 -21 -19 -17
right_child=1 3 -4 4 10 -7 -8 -9 9 -11 11 12 -14 -15 -16 22 17 21 -20 20 -22 -23 -24
leaf_value=0.95912034756750963 0.0092946196025053794 -0.083218422174991216 -0.096342129757454945 1.7493802414057325 0.59094811833370631 -0.20864826583191387 0.16193419884847643 0.59517378201816562 0.59190379599772236 4.9594796385898059 -2.1951138056204944 -1.1461042568296504 0.48474496660446925 0.13559156248504531 0.18327915859955982 -0.7691332962293379 3.3008373063428813 -1.2293517630025517 -0.57389660471843151 -1.2875225194134978 0.62778711002045995 -0.46821244730092215 -0.24981170685313858
leaf_weight=374 16792 2922 33098 211 5188 1647 12945 7090 425 25 50 221 2887 2125 20765 1103 27 1053 1238 228 197 1287 38328
leaf_count=374 16792 2922 33098 211 5188 1647 12945 7090 425 25 50 221 2887 2125 20765 1103 27 1053 1238 228 197 1287 38328
internal_value=-0.00740669 0.202423 -0.207308 0.304241 0.446109 0.243752 0.275585 0.415654 0.0394202 0.835606 0.41983 0.250188 0.274073 0.0148063 0.105541 -0.291094 -0.530615 -0.770897 -0.25138 0.248343 -0.390582 -0.818019 -0.264341
internal_weight=150226 73293 76933 35736 10682 25054 23407 10462 3372 450 10471 5283 5233 2346 37557 43835 4404 2367 2037 799 425 2340 39431
internal_count=150226 73293 76933 35736 10682 25054 23407 10462 3372 450 10471 5283 5233 2346 37557 43835 4404 2367 2037 799 425 2340 39431
cat_boundaries=0 1 2 3 4 5
cat_threshold=151016 935717 27770 938061 1009922
is_linear=0
shrinkage=0.05


Tree=24
num_leaves=24
num_cat=1
split_feature=20 5 5 5 5 5 5 5 5 5 5 5 5 5 5 5 5 5 0 1 5 23 0
split_gain=3.16019e+08 5.18062e+07 5.09315e+07 7.74956e+06 7.39133e+06 7.33768e+06 6.58667e+06 1.62611e+06 1.3618e+06 979614 916384 814446 732859 724055 521969 337050 324090 237586 224083 212697 176786 172919 172880
threshold=1.0000000180025095e-35 2332.5000000000005 3159.5000000000005 3248.5000000000005 4067.5000000000005 1899.5000000000002 1466.5000000000002 3965.5000000000005 2441.5000000000005 4503.5000000000009 955.50000000000011 3578.5000000000005 1156.5000000000002 1954.5000000000002 2726.5000000000005 2851.5000000000005 4607.5000000000009 591.50000000000011 163544.00000000003 0 1174.5000000000002 0.0020460000000000005 184247.50000000003
decision_type=2 2 2 2 2 2 2 2 2 2 2 2 2 2 2 2 2 2 2 1 2 2 2
left_child=1 6 5 14 11 12 10 -5 -7 22 17 -4 -2 -8 -3 -10 -9 19 -19 21 -12 -1 -6
right_child=2 3 4 7 9 8 13 16 15 -11 20 -13 -14 -15 -16 -17 -18 18 -20 -21 -22 -23 -24
leaf_value=-0.029069873507441425 -5.7131448758803494 2.8473938791683642 -2.3373396893776803 4.3269563369272213 -1.1658221202221721 -3.9220211546596411 1.7100618283906508 5.1986155785763071 -3.2871682837401814 -0.4324096898149648 0.84029898428155936 -1.6981466604064956 -4.7681524063985909 2.3378517972634771 3.4384194320525538 -2.7586091624729931 6.0409574766390035 0.73451445447333852 0.25579968255331625 0.43789162578229474 1.2046520166351553 -1.2884845419647781 -0.7247411669625875
leaf_weight=833 2961 7103 8832 8032 8449 7069 11310 4480 6722 14615 5992 11442 6711 7736 7893 5482 1540 6995 3758 1552 7496 405 3015
leaf_count=833 2961 7103 8832 8032 8449 7069 11310 4480 6722 14615 5992 11442 6711 7736 7893 5482 1540 6995 3758 1552 7496 405 3015
internal_value=0.0010134 2.29541 -2.28811 3.94909 -1.26052 -3.93371 1.25289 4.79277 -3.36971 -0.703822 0.75108 -1.97661 -5.05751 1.96507 3.1585 -3.04977 5.4142 0.460542 0.567216 0.0494023 1.0428 -0.437616 -1.04983
internal_weight=150423 75125 75298 29048 46353 28945 46077 14052 19273 26079 27031 20274 9672 19046 14996 12204 6020 13543 10753 2790 13488 1238 11464
internal_count=150423 75125 75298 29048 46353 28945 46077 14052 19273 26079 27031 20274 9672 19046 14996 12204 6020 13543 10753 2790 13488 1238 11464
cat_boundaries=0 1
cat_threshold=208081
is_linear=0
shrinkage=0.05


Tree=25
num_leaves=24
num_cat=3
split_feature=20 2 2 0 11 23 9 0 11 0 23 4 9 11 8 2 8 0 12 0 23 8 9
split_gain=2.83592e+08 218660 157755 105289 97831.2 87905.7 76948.8 74698.9 91226.7 73114.3 139847 166680 130007 86415.4 73443 88078.2 73104.8 71996.3 80276 70675.8 72460.1 96178.5 69092.7
threshold=1.0000000180025095e-35 0 1 235260.00000000003 4.5000000000000009 0.0022580000000000005 25.500000000000004 194068.50000000003 4.5000000000000009 40332.000000000007 0.0021340000000000005 4.5000000000000009 27.500000000000004 2.5000000000000004 25.500000000000004 2 10.500000000000002 248062.50000000003 8.5000000000000018 45263.500000000007 0.0019780000000000002 26.500000000000004 3.5000000000000004
decision_type=2 1 1 2 2 2 2 2 2 2 2 2 2 2 2 1 2 2 2 2 2 2 2
left_child=1 5 7 -3 6 9 -5 8 -2 10 14 12 -12 -13 -1 -16 -15 -6 -19 -10 -21 22 -22
right_child=2 3 -4 4 17 -7 -8 -9 19 -11 11 13 -14 16 15 -17 -18 18 -20 20 21 -23 -24
leaf_value=1.7565709573866479 -2.2485178844437623 2.2807017489537467 -2.2409304863922821 1.3113171295000412 2.3379683528465796 3.6450822712061246 2.5204430605120245 -1.9116316078442137 -1.8120232538388406 2.1021417718365809 3.6170410576000478 3.7120221754005054 0.61931472758597117 2.0509832816108631 1.5164039900453601 2.7432851528932449 -1.0726293438306027 0.81571712954991826 3.6803313713303134 -1.9222669010805005 -1.590698756947843 -2.7748907989734368 -2.2002475794383787
leaf_weight=4508 7926 36367 49172 744 1190 89 160 5720 2852 30373 310 22 41 31 366 482 47 154 29 3568 523 668 4284
leaf_count=4508 7926 36367 49172 744 1190 89 160 5720 2852 30373 310 22 41 31 366 482 47 154 29 3568 523 668 4284
internal_value=-0.00345863 2.17041 -2.18314 2.25945 1.92987 2.07433 1.52558 -2.07019 -2.11699 2.07103 1.90827 2.75418 3.26717 0.952052 1.83699 2.26423 0.169779 2.19593 1.27146 -2.02932 -2.09784 -2.21221 -2.13396
internal_weight=149626 74913 74713 38644 2277 36269 904 25541 19821 36180 5807 451 351 100 5356 848 78 1373 183 11895 9043 5475 4807
internal_count=149626 74913 74713 38644 2277 36269 904 25541 19821 36180 5807 451 351 100 5356 848 78 1373 183 11895 9043 5475 4807
cat_boundaries=0 2 4 5
cat_threshold=1317509993 81 3032618568 42 209945408
is_linear=0
shrinkage=0.05


Tree=26
num_leaves=24
num_cat=7
split_feature=20 5 5 5 5 5 5 5 5 5 5 5 5 5 5 0 2 2 2 2 2 2 2
split_gain=2.58024e+08 4.72267e+07 4.53323e+07 6.59066e+06 6.47432e+06 6.36697e+06 6.28996e+06 1.13678e+06 1.08854e+06 1.02995e+06 963109 758081 742650 711442 566681 339786 402832 332957 315704 310963 279717 273573 221764
threshold=1.0000000180025095e-35 2369.5000000000005 3159.5000000000005 4226.5000000000009 1935.5000000000002 1375.5000000000002 3559.5000000000005 2477.5000000000005 3788.5000000000005 2958.5000000000005 1808.5000000000002 1267.5000000000002 4366.5000000000009 973.50000000000011 4589.5000000000009 226359.00000000003 0 1 2 3 4 5 6
decision_type=2 2 2 2 2 2 2 2 2 2 2 2 2 2 2 2 1 1 1 1 1 1 1
left_child=1 5 4 8 11 13 9 -6 -4 -3 17 -2 -8 15 22 20 -17 -7 -10 -16 -1 -15 -5
right_child=2 6 3 14 7 10 12 -9 18 -11 -12 -13 -14 21 19 16 -18 -19 -20 -21 -22 -23 -24
leaf_value=0.63922795940291977 -5.2177639235766531 2.791950701800789 -1.9677033772176877 -1.0747663780807049 -3.5751814751543542 1.7105651844378824 4.4114184459814796 -2.7728262422201877 -1.5924083769539905 3.5528261800980441 2.0296799310835834 -4.3184931261213384 5.3549477105601548 1.1109405885157586 0.024722279991029356 -1.4462001436608976 0.3240616178939193 1.122296768519061 -1.0369495855863435 -0.48162205712203821 0.16696181192210946 0.59897120996519093 -0.57664603499368483
leaf_weight=5914 3716 10050 13591 3572 7132 4255 7284 11596 4912 7984 11606 6365 2927 5246 5612 567 722 6111 5811 6595 6712 5396 6270
leaf_count=5914 3716 10050 13591 3572 7132 4255 7284 11596 4912 7984 11606 6365 2927 5246 5612 567 722 6111 5811 6595 6712 5396 6270
internal_value=-0.00210999 2.07752 -2.07073 -1.10284 -3.62836 1.09848 3.69031 -3.0784 -1.67053 3.12882 1.71682 -4.65003 4.68193 0.545225 -0.476822 0.309867 -0.463387 1.36651 -1.29386 -0.249213 0.388813 0.852963 -0.759119
internal_weight=149946 74774 75172 46363 28809 46529 28245 18728 24314 18034 21972 10081 10211 24557 22049 13915 1289 10366 10723 12207 12626 10642 9842
internal_count=149946 74774 75172 46363 28809 46529 28245 18728 24314 18034 21972 10081 10211 24557 22049 13915 1289 10366 10723 12207 12626 10642 9842
cat_boundaries=0 2 4 6 8 10 12 14
cat_threshold=1879080766 549 2715830329 794 3762381297 723 3143870085 515 876690662 996 3244139546 438 1729110707 34
is_linear=0
shrinkage=0.05


Tree=27
num_leaves=24
num_cat=11
split_feature=2 0 2 0 1 3 1 8 2 0 2 8 12 0 2 8 2 2 0 8 12 15 0
split_gain=161034 86046.5 110192 75833.8 121041 65123.5 118852 64719.2 156251 94298.6 91117 88420.6 168554 82885 73527.7 73800 148963 104864 163031 93698.4 79457.7 74423.9 72745.8
threshold=0 224393.50000000003 1 7817.5000000000009 2 3 4 17.500000000000004 5 109327.50000000001 6 21.500000000000004 7.5000000000000009 15746.500000000002 7 10.500000000000002 8 9 13822.500000000002 6.5000000000000009 6.5000000000000009 10 143937.50000000003
decision_type=1 2 1 2 1 1 1 2 1 2 1 2 2 2 1 2 1 1 2 2 2 1 2
left_child=1 3 -3 4 -1 6 -4 14 9 10 -9 12 -12 -14 -2 17 -17 18 19 -16 -21 22 -19
right_child=7 2 5 -5 -6 -7 -8 8 -10 -11 11 -13 13 -15 15 16 -18 21 -20 20 -22 -23 -24
leaf_value=0.60170023115195115 0.0020020689850018449 0.40930541486117544 0.58343061489583647 -0.11382481751038571 -0.26130859056097283 0.092903802341734135 -0.64645121732132538 -0.21384684793539926 0.064924117124167388 -0.23601944609750192 0.18483794236019213 0.28921474019184745 -2.6535377611260031 -0.7035676654809967 -0.48150221209627592 -0.0059447436787385434 0.3531044481174338 0.13108653456113653 -0.026553860002345483 -2.9732025045533561 -0.63488936884703695 0.025778279404194172 0.50173531494002654
leaf_weight=935 26067 1947 246 44367 707 2225 868 3019 23820 9687 996 3135 63 401 277 4761 7357 3110 8000 90 61 5338 2305
leaf_count=935 26067 1947 246 44367 707 2225 868 3019 23820 9687 996 3135 63 401 277 4761 7357 3110 8000 90 61 5338 2305
internal_value=-0.00768115 -0.0795095 0.111527 -0.101475 0.232189 -0.0631519 -0.375395 0.0297343 -0.0181358 -0.132454 -0.000862676 0.139235 -0.181852 -0.968852 0.0640537 0.115695 0.212326 0.0547051 -0.0773338 -1.02806 -2.02966 0.15812 0.288868
internal_weight=149782 51295 5286 46009 1642 3339 1114 98487 41121 17301 7614 4595 1460 464 57366 31299 12118 19181 8428 428 151 10753 5415
internal_count=149782 51295 5286 46009 1642 3339 1114 98487 41121 17301 7614 4595 1460 464 57366 31299 12118 19181 8428 428 151 10753 5415
cat_boundaries=0 2 4 5 6 7 9 10 12 14 16 17
cat_threshold=1251229987 81 1107296257 17 9390 4 1536 556377220 10 555753476 4364872 900 2416443408 40 86049920 2 2
is_linear=0
shrinkage=0.05


Tree=28
num_leaves=24
num_cat=6
split_feature=20 5 5 5 5 5 5 5 5 5 5 5 5 5 5 5 2 2 2 5 2 2 2
split_gain=2.30537e+08 4.27998e+07 4.17163e+07 7.53969e+06 7.07515e+06 4.80013e+06 4.62478e+06 1.2166e+06 1.0567e+06 961015 872783 751058 572530 498863 402336 346740 333325 316097 289304 276466 257411 254477 234999
threshold=1.0000000180025095e-35 2495.5000000000005 3335.5000000000005 2188.5000000000005 1502.5000000000002 3788.5000000000005 4261.5000000000009 1556.5000000000002 3212.5000000000005 2796.5000000000005 1174.5000000000002 2081.5000000000005 3858.5000000000005 4773.5000000000009 4453.5000000000009 737.50000000000011 0 1 2 901.50000000000011 3 4 5
decision_type=2 2 2 2 2 2 2 2 2 2 2 2 2 2 2 2 1 1 1 2 1 1 1
left_child=1 4 3 7 10 8 12 19 -3 -5 15 -6 -4 22 -7 20 -12 -15 -17 -2 -1 -14 -8
right_child=2 5 6 9 11 14 13 -9 -10 -11 16 -13 21 17 -16 18 -18 -19 -20 -21 -22 -23 -24
leaf_value=0.52072764146477812 -5.3414511242918365 2.8637321535363536 -1.6865168208125423 -3.0441101543728832 1.5456379266918956 4.4074249550435578 -0.30959369619532379 -3.7879632887845869 3.646841793944974 -2.337876396245508 1.3695137023502997 2.1586158371237985 -0.86555403205172687 -0.43867448168751166 5.1916515648528287 0.28571435554584407 0.72336646904205604 0.24626946009355014 0.77087123858278173 -4.5584685820740516 -0.10982314505091209 -1.3873483737586829 -0.73031609364655503
leaf_weight=2463 1504 11382 11538 9356 13007 5299 5368 7094 6935 9935 3499 8117 4212 2983 2373 5798 4883 3843 6630 4562 4679 5756 8918
leaf_count=2463 1504 11382 11538 9356 13007 5299 5368 7094 6935 9935 3499 8117 4212 2983 2373 5798 4883 3843 6630 4562 4679 5756 8918
internal_value=7.45097e-05 1.95942 -1.95917 -3.30992 1.0906 3.60006 -0.930654 -4.23268 3.16024 -2.68041 0.568696 1.78119 -1.44672 -0.404956 4.65006 0.385842 0.995606 -0.053338 0.545387 -4.75269 0.108208 -1.16913 -0.57296
internal_weight=150134 75065 75069 32451 49076 25989 42618 13160 18317 19291 27952 21124 21506 21112 7672 19570 8382 6826 12428 6066 7142 9968 14286
internal_count=150134 75065 75069 32451 49076 25989 42618 13160 18317 19291 27952 21124 21506 21112 7672 19570 8382 6826 12428 6066 7142 9968 14286
cat_boundaries=0 2 4 6 8 10 12
cat_threshold=962865706 314 1519656051 448 3132901772 77 718868676 352 1538593293 164 944285716 415
is_linear=0
shrinkage=0.05


Tree=29
num_leaves=24
num_cat=3
split_feature=20 5 5 5 5 5 5 5 5 5 5 5 5 5 5 5 5 1 5 5 1 1 12
split_gain=2.08314e+08 3.81857e+07 3.67883e+07 6.31911e+06 5.64543e+06 5.05719e+06 4.31893e+06 1.05514e+06 927810 906794 857272 782536 575506 569024 433183 257335 248718 162664 145301 138384 244463 147614 145950
threshold=1.0000000180025095e-35 2332.5000000000005 2993.5000000000005 4032.5000000000005 3387.5000000000005 1375.5000000000002 1808.5000000000002 4471.5000000000009 2441.5000000000005 3982.5000000000005 3490.5000000000005 1808.5000000000002 2761.5000000000005 920.50000000000011 1100.5000000000002 4806.5000000000009 4607.5000000000009 0 3212.5000000000005 572.50000000000011 1 2 9.5000000000000018
decision_type=2 2 2 2 2 2 2 2 2 2 2 2 2 2 2 2 2 1 2 2 1 1 2
left_child=1 5 6 10 12 13 14 -5 -8 -6 -4 -7 -3 19 -2 -9 -11 -17 -14 20 -1 -21 -22
right_child=2 4 3 7 9 11 8 15 -10 16 -12 -13 18 -15 -16 17 -18 -19 -20 21 22 -23 -24
leaf_value=-0.88776448388593987 -4.8513468670001592 2.3703436053933329 -2.0307678963021809 -0.91162185920467442 3.6889678380446145 1.222394614204221 -3.329347460772393 -0.43376016998638262 -2.5952777754558323 4.3603999013280603 -1.4077674845416341 1.83020098684384 2.8411705630777497 0.72407040665959921 -4.0764180110176795 0.28144822272831815 5.1061974355407891 -0.25040516793961543 3.2994808240995539 0.13081219470163868 0.076697118663609773 0.51124338515989898 1.6874788062178041
leaf_weight=689 2592 7645 9868 11297 6326 10335 8072 9689 9230 4378 12541 10863 6682 12197 5961 2591 1508 3204 2341 5102 1419 5135 156
leaf_count=689 2592 7645 9868 11297 6326 10335 8072 9689 9230 4378 12541 10863 6682 12197 5961 2591 1508 3204 2341 5102 1419 5135 156
internal_value=-0.00412087 1.86365 -1.86519 -1.06259 3.28803 0.967349 -3.39216 -0.544197 -2.93777 4.10476 -1.68212 1.53387 2.68962 0.481103 -4.31132 -0.276122 4.55156 -0.0125532 2.96011 0.244039 -0.109699 0.322272 0.23485
internal_weight=149821 74776 75045 49190 28880 45896 25855 26781 17302 12212 22409 21198 16668 24698 8553 15484 5886 5795 9023 12501 2264 10237 1575
internal_count=149821 74776 75045 49190 28880 45896 25855 26781 17302 12212 22409 21198 16668 24698 8553 15484 5886 5795 9023 12501 2264 10237 1575
cat_boundaries=0 1 2 3
cat_threshold=412750 140817 728206
is_linear=0
shrinkage=0.05


Tree=30
num_leaves=24
num_cat=13
split_feature=20 2 2 8 10 9 2 2 10 2 9 13 2 17 4 9 18 10 2 9 3 13 2
split_gain=1.87162e+08 163744 120239 74221.9 64220.8 67386.5 100988 71888.4 62517.1 152652 63503.9 62198 74960 67061.3 58221.6 103758 54651.2 53837.2 103200 92723.9 73431.3 61910.8 126255
threshold=1.0000000180025095e-35 0 1 17.500000000000004 9.5000000000000018 11.500000000000002 2 3 34.500000000000007 4 26.500000000000004 5 6 7 3.5000000000000004 7.5000000000000009 8 4.5000000000000009 9 25.500000000000004 10 11 12
decision_type=2 1 1 2 2 2 1 1 2 1 2 1 1 1 2 2 1 2 1 2 1 1 1
left_child=2 3 17 4 5 6 -2 16 -3 10 -10 -5 13 14 -13 -16 -7 18 19 -1 -21 22 -19
right_child=1 8 -4 11 -6 7 -8 -9 9 -11 -12 12 -14 -15 15 -17 -18 21 -20 20 -22 -23 -24
leaf_value=2.0856453635660586 -1.1419542063485892 -1.8248483306857128 1.8337874311191993 -1.9288634646709697 -1.6294971123178557 -1.2465014335646609 -2.1713199642048515 -0.9790071643402829 -1.9781940118214589 -1.0538083912672869 -3.5651925005463059 -1.2050887789938196 -1.4929236084836091 -2.0500906789352378 -0.5124506250109383 -2.4916735260553473 -2.1703700002483663 1.7565306290659628 1.5915358171450256 2.0492930691070539 3.9100250245119152 1.7247447042126094 1.3746152415018491
leaf_weight=1050 576 49800 41947 3253 10588 337 568 1426 514 918 72 550 3837 1944 87 278 306 5089 1653 86 140 19933 4910
leaf_count=1050 576 49800 41947 3253 10588 337 568 1426 514 918 72 550 3837 1944 87 278 306 5089 1653 86 140 19933 4910
internal_value=0.00266103 -1.76143 1.77255 -1.64446 -1.57004 -1.37408 -1.68215 -1.20367 -1.8149 -1.4973 -2.1373 -1.74933 -1.66209 -1.87727 -1.53043 -2.0202 -1.66062 1.6933 1.89863 2.26606 3.2032 1.67377 1.57214
internal_weight=149862 75054 74808 23750 13801 3213 1144 2069 51304 1504 586 9949 6696 2859 915 365 643 32861 2929 1276 226 29932 9999
internal_count=149862 75054 74808 23750 13801 3213 1144 2069 51304 1504 586 9949 6696 2859 915 365 643 32861 2929 1276 226 29932 9999
cat_boundaries=0 2 4 6 8 10 11 13 14 15 17 18 19 21
cat_threshold=805447628 42 2124847432 577 536872260 34 536872452 2 17891378 657 4 536879936 2 2 1 176292104 576 4 4 1948387392 576
is_linear=0
shrinkage=0.05


Tree=31
num_leaves=24
num_cat=5
split_feature=20 22 13 0 23 1 1 8 8 0 8 23 23 1 8 0 3 0 24 0 10 0 10
split_gain=1.71201e+08 91532.9 85816.6 109722 108980 95493.3 81783.3 95251.8 80945.2 80464.8 129063 71062 70931.2 106102 139180 143895 93796.8 84698.6 70185.3 70099.7 84554.3 68384.9 66801.6
threshold=1.0000000180025095e-35 9228.6289264436327 0 176452.50000000003 0.0017940000000000002 1 2 29.500000000000004 1.0000000180025095e-35 177425.50000000003 11.500000000000002 0.0018740000000000002 0.0019460000000000002 3 23.500000000000004 14782.500000000002 4 12825.500000000002 0.0097380000000000019 138063.50000000003 29.500000000000004 22640.500000000004 27.500000000000004
decision_type=2 2 1 2 2 1 1 2 2 2 2 2 2 1 2 2 1 2 2 2 2 2 2
left_child=2 -2 3 4 -1 -5 8 11 -6 10 -7 -8 13 14 15 18 22 -16 -4 20 -18 -22 -15
right_child=1 -3 12 5 6 9 7 -9 -10 -11 -12 -13 -14 16 17 -17 19 -19 -20 -21 21 -23 -24
leaf_value=2.9540276076763528 -1.7568390442703015 -1.6442237047376904 1.2724234476194278 1.2071005928314591 0.63750802469792611 -3.1427858296926923 1.3320071427596416 0.9634163357648261 1.5505233895997343 1.6340477981684722 1.6432375338599294 1.8314129691584111 1.6914239480769031 1.8106973267995181 4.744653663965039 1.9819972785581468 1.8804359720322985 2.4950945429392259 -0.86738762966868588 1.3819947347836199 -0.05537375495834107 1.4422926888334062 2.4106492012276473
leaf_weight=166 30265 44829 100 2958 252 23 772 358 6773 4320 36 9431 38072 1907 44 3133 2325 874 62 2337 93 422 615
leaf_count=166 30265 44829 100 2958 252 23 772 358 6773 4320 36 9431 38072 1907 44 3133 2325 874 62 2337 93 422 615
internal_value=-0.00160483 -1.68961 1.68688 1.61137 1.67861 1.44863 1.66656 1.76384 1.51562 1.60533 -0.224577 1.79364 1.72477 1.83135 2.05383 1.90686 1.7047 2.60343 0.453423 1.585 1.75199 1.17187 1.95709
internal_weight=150167 75094 75073 25089 17752 7337 17586 10561 7025 4379 59 10203 49984 11912 4213 3295 7699 918 162 5177 2840 515 2522
internal_count=150167 75094 75073 25089 17752 7337 17586 10561 7025 4379 59 10203 49984 11912 4213 3295 7699 918 162 5177 2840 515 2522
cat_boundaries=0 1 2 3 4 5
cat_threshold=4 668716 304662 172840 1
is_linear=0
shrinkage=0.05


Tree=32
num_leaves=24
num_cat=5
split_feature=20 5 5 5 5 5 5 5 5 5 5 5 5 5 2 2 2 2 2 5 5 5 5
split_gain=1.51633e+08 3.48242e+07 3.34741e+07 5.3336e+06 5.13088e+06 4.64789e+06 4.46143e+06 1.049e+06 984257 878259 604319 555445 533640 438771 375665 347528 266030 254901 241420 210437 201943 196246 162224
threshold=1.0000000180025095e-35 2332.5000000000005 3230.5000000000005 2188.5000000000005 3248.5000000000005 1375.5000000000002 4330.5000000000009 4032.5000000000005 1466.5000000000002 3788.5000000000005 737.50000000000011 1718.5000000000002 2672.5000000000005 2726.5000000000005 0 1 2 3 4 955.50000000000011 4607.5000000000009 4740.5000000000009 4555.5000000000009
decision_type=2 2 2 2 2 2 2 2 2 2 2 2 2 2 1 1 1 1 1 2 2 2 2
left_child=1 5 3 8 13 10 9 -6 19 -4 18 17 -5 -3 21 -12 -11 -7 -1 -2 -9 -8 -16
right_child=2 4 6 12 7 11 14 20 -10 16 15 -13 -14 -15 22 -17 -18 -19 -20 -21 -22 -23 -24
leaf_value=0.40793094382798289 -4.6126098106843543 2.0183028146291209 -1.4619719733378715 -2.6216982368005506 3.2950886574227973 1.2303128961584866 -0.068329092876410383 3.9946248353188363 -3.2794532434251153 -0.34988020932606195 0.2119469270824188 1.4827236757975175 -2.0537521250216288 2.5619884577980105 -0.57524680154417229 0.6578055852141067 -0.97049393283320162 0.66961837481814701 -0.2754049267680671 -3.9396474516691975 4.6775637051497458 0.47843787883076766 -0.18614843313075724
leaf_weight=1680 1742 7004 12150 7123 8570 4276 4050 3924 7892 2082 9008 13010 9872 7901 3922 8541 11348 4053 5495 3522 1502 2759 8451
leaf_count=1680 1742 7004 12150 7123 8570 4276 4050 3924 7892 2082 9008 13010 9872 7901 3922 8541 11348 4053 5495 3522 1502 2759 8451
internal_value=0.00178044 1.59161 -1.58913 -2.87693 2.95212 0.737988 -0.721684 3.63964 -3.63278 -1.15395 0.27138 1.27861 -2.29181 2.30652 -0.145241 0.429442 -0.875269 0.959765 -0.115215 -4.16243 4.18376 0.152999 -0.309239
internal_weight=149877 74964 74913 30151 28901 46063 44762 13996 13156 25580 24724 21339 16995 14905 19182 17549 13430 8329 7175 5264 5426 6809 12373
internal_count=149877 74964 74913 30151 28901 46063 44762 13996 13156 25580 24724 21339 16995 14905 19182 17549 13430 8329 7175 5264 5426 6809 12373
cat_boundaries=0 2 4 6 8 10
cat_threshold=939714308 47 3484942776 845 411304456 32 636799546 824 139006148 96
is_linear=0
shrinkage=0.05


Tree=33
num_leaves=24
num_cat=5
split_feature=20 5 5 5 5 5 5 5 5 5 5 5 5 5 5 5 1 5 7 1 1 5 1
split_gain=1.3783e+08 3.14501e+07 3.02687e+07 5.32012e+06 4.3556e+06 4.3292e+06 3.31853e+06 966658 966486 816686 526850 487296 423074 390885 341115 205876 189177 167135 166517 253594 169672 147295 185146
threshold=1.0000000180025095e-35 2225.5000000000005 3159.5000000000005 3283.5000000000005 1808.5000000000002 4244.5000000000009 1375.5000000000002 2477.5000000000005 3947.5000000000005 3578.5000000000005 920.50000000000011 2708.5000000000005 4740.5000000000009 1120.5000000000002 1718.5000000000002 4607.5000000000009 0 2923.5000000000005 1 2 3 4032.5000000000005 4
decision_type=2 2 2 2 2 2 2 2 2 2 2 2 2 2 2 2 1 2 1 1 1 2 1
left_child=1 6 4 11 13 9 10 -6 -5 -4 18 -3 -7 -2 -8 -10 -14 -9 19 -1 -20 -11 -23
right_child=2 3 5 8 7 12 14 17 15 21 -12 -13 16 -15 -16 -17 -18 -19 20 -21 -22 22 -24
leaf_value=0.72704223315065564 -4.2339727499948721 1.8972157759446659 -1.562225055916368 3.0887202836971466 -2.7898215693968185 -0.37278148922949056 0.90656294754401756 -2.2362911328103379 3.772988731294681 -1.069317974461772 0.5043001079467343 2.4263683506337901 -0.24599711295096896 -3.5065167541661424 1.3314296291125796 4.4457953954233114 0.26871639453861412 -1.8418245916451743 0.14028884631450975 -0.057491897559894006 -0.31138710509871442 -0.44999623772585268 -1.0472425967031789
leaf_weight=1884 2709 8869 8794 7352 8664 13670 8347 7306 4728 10589 12194 8547 2741 5827 10889 1503 5079 4253 4120 2262 4180 2694 2603
leaf_count=1884 2709 8869 8794 7352 8664 13670 8347 7306 4728 10589 12194 8547 2741 5827 10889 1503 5079 4253 4120 2262 4180 2694 2603
internal_value=-0.00090439 1.51627 -1.51699 2.73541 -2.7903 -0.723847 0.654932 -2.3905 3.47712 -1.17564 0.270722 2.15691 -0.204987 -3.73743 1.14707 3.93535 0.088331 -2.09117 0.0418703 0.300634 -0.0873882 -0.961627 -0.746331
internal_weight=149804 74875 74929 30999 28759 46170 43876 20223 13583 24680 24640 17416 21490 8536 19236 6231 7820 11559 12446 4146 8300 15886 5297
internal_count=149804 74875 74929 30999 28759 46170 43876 20223 13583 24680 24640 17416 21490 8536 19236 6231 7820 11559 12446 4146 8300 15886 5297
cat_boundaries=0 1 2 3 4 5
cat_threshold=5785 2 51571 856933 935352
is_linear=0
shrinkage=0.05


Tree=34
num_leaves=24
num_cat=7
split_feature=20 2 2 0 2 0 24 23 2 11 2 0 23 2 2 23 6 23 23 21 24 21 24
split_gain=1.24911e+08 138214 136964 132219 124820 106625 101135 86024.5 77171.1 73491.3 99000.2 106538 80453.7 120970 71486.3 64362.7 95404.8 91779.3 89071.4 99213.3 69102.9 113559 81501
threshold=1.0000000180025095e-35 0 1 173440.50000000003 2 207733.50000000003 0.0016540000000000003 0.0019900000000000004 3 4.5000000000000009 4 8802.5000000000018 0.0019580000000000001 5 6 0.0018380000000000002 2021.5000000000002 0.0019980000000000002 0.0018040000000000003 1.5000000000000002 0.0016180000000000003 1.5000000000000002 0.0016700000000000003
decision_type=2 1 1 2 1 2 2 2 1 2 1 2 2 1 1 2 2 2 2 2 2 2 2
left_child=2 5 15 6 -5 9 8 -6 -4 10 11 -2 13 -11 -7 16 18 -17 19 -1 21 -20 -22
right_child=1 -3 3 4 7 14 -8 -9 -10 12 -12 -13 -14 -15 -16 17 -18 -19 20 -21 22 -23 -24
leaf_value=0.68384626519487568 -2.7284848057052651 -1.5105658755830118 0.98531897455784101 1.0361358689223645 1.1817580430213457 -0.98258946990863016 1.4765455279065054 1.5054011061186359 1.4075772243020945 -0.90037695273926988 -1.6193956305005213 -1.2040802481851851 -1.4102156285424203 -1.4393547023494548 -1.3741160346190293 1.6376091685234062 -0.544117967120608 1.4611155302098489 1.7977952599806608 2.5920016831211279 2.4579138974442336 -1.8365230578032492 0.96606511521261251
leaf_weight=99 119 43101 2174 4952 3549 2975 25222 4882 2927 2383 7201 3097 11375 2145 2430 13018 76 17008 37 219 106 51 671
leaf_count=99 119 43101 2174 4952 3549 2975 25222 4882 2927 2383 7201 3097 11375 2145 2430 13018 76 17008 37 219 106 51 671
internal_value=-0.00386789 -1.4492 1.43828 1.37736 1.24673 -1.36492 1.43547 1.36756 1.23233 -1.4069 -1.51019 -1.25666 -1.33924 -1.1609 -1.163 1.52246 1.17246 1.53764 1.28278 1.99837 1.0195 -0.308094 1.16988
internal_weight=149817 74826 74991 43706 13383 31725 30323 8431 5101 26320 10417 3216 15903 4528 5405 31285 1259 30026 1183 318 865 88 777
internal_count=149817 74826 74991 43706 13383 31725 30323 8431 5101 26320 10417 3216 15903 4528 5405 31285 1259 30026 1183 318 865 88 777
cat_boundaries=0 2 4 5 7 9 11 13
cat_threshold=3198322252 43 1430855900 302 2290369825 36750371 1 973079044 2 278922820 42 2583856192 33
is_linear=0
shrinkage=0.05


Tree=35
num_leaves=24
num_cat=12
split_feature=5 5 5 2 2 2 2 5 2 11 2 5 2 8 3 17 2 0 2 0 24 2 6
split_gain=4.19544e+06 926603 387512 196237 173958 170841 153877 126483 189311 89889.3 154064 152601 106568 161239 114069 88528.8 176523 127046 213987 87066.7 106541 241485 140978
threshold=3212.5000000000005 1718.5000000000002 4503.5000000000009 0 1 2 3 628.50000000000011 4 5.5000000000000009 5 536.50000000000011 6 17.500000000000004 7 8 9 45263.500000000007 10 178412.50000000003 0.0034760000000000004 11 2004.5000000000002
decision_type=2 2 2 1 1 1 1 2 1 2 1 2 1 2 1 1 1 2 1 2 2 1 2
left_child=1 6 5 -4 -3 -2 -1 8 -8 12 11 -11 13 -10 -14 16 -9 18 -18 -5 21 -21 -23
right_child=2 4 3 19 -6 -7 7 15 9 10 -12 -13 14 -15 -16 -17 17 -19 -20 20 -22 22 -24
leaf_value=-0.49846982179259514 0.40044963212361373 -0.16720106470101334 0.72552782917566871 0.28125735360157195 0.02181441526696493 0.18738132012026854 -1.2606678390407358 -0.41578456558914428 -2.1248873491917148 -0.6943879770171727 -0.59427003160086189 1.3867339841252901 -1.2757896304538527 -0.073679229920574296 0.44341750033763633 -0.33305212360660708 0.45844732998822568 0.218039404634916 -1.184925237564231 1.9263929972139058 0.24093585282252442 1.1299984723082273 -0.021689784718091333
leaf_weight=16696 13936 21399 7713 6381 28216 29178 810 2932 241 128 466 282 146 159 284 14232 343 3475 450 406 1042 482 592
leaf_count=16696 13936 21399 7713 6381 28216 29178 810 2932 241 128 466 282 146 159 284 14232 343 3475 450 406 1042 482 592
internal_value=0.0103831 -0.204736 0.335454 0.540599 -0.0597375 0.25639 -0.381739 -0.300021 -0.635517 -0.32932 0.0220347 0.719451 -0.704079 -1.27783 -0.137271 -0.260773 -0.117897 0.087516 -0.483295 0.379141 0.62828 0.900954 0.49066
internal_weight=149989 90259 59730 16616 49615 43114 40644 23948 2516 1706 876 410 830 400 430 21432 7200 4268 793 8903 2522 1480 1074
internal_count=149989 90259 59730 16616 49615 43114 40644 23948 2516 1706 876 410 830 400 430 21432 7200 4268 793 8903 2522 1480 1074
cat_boundaries=0 2 4 6 8 10 12 14 15 16 18 20 21
cat_threshold=724022661 46 697683235 292 2491549388 352 3668345633 592 553658498 136 524372 39 528464 294 2 1 1584140 137 67109008 294 3229616208
is_linear=0
shrinkage=0.05


Tree=36
num_leaves=24
num_cat=4
split_feature=5 5 5 5 0 5 23 5 8 5 22 5 1 0 9 6 23 13 8 1 9 1 11
split_gain=3.89659e+06 521736 434295 163545 134015 141604 125687 161017 125075 123237 120924 137100 116305 144211 117968 203436 218473 143992 112840 179269 143708 142215 141029
threshold=2813.5000000000005 3681.5000000000005 1662.5000000000002 591.50000000000011 175462.00000000003 4821.5000000000009 0.0020700000000000002 4889.5000000000009 26.500000000000004 4839.5000000000009 9304.8524341086177 4955.5000000000009 0 248062.50000000003 18.500000000000004 1997.5000000000002 0.0019540000000000004 1 11.500000000000002 2 27.500000000000004 3 2.5000000000000004
decision_type=2 2 2 2 2 2 2 2 2 2 2 2 1 2 2 2 2 1 2 1 2 1 2
left_child=2 -2 3 12 5 -3 10 -8 -9 -7 18 -12 -1 14 15 17 -17 -14 21 -20 -21 -6 -23
right_child=1 4 -4 -5 6 9 7 8 -10 -11 11 -13 13 -15 -16 16 -18 -19 19 20 -22 22 -24
leaf_value=-1.1908677679259849 0.097900656749330489 0.2728275174024265 -0.12699141222513863 -0.33417236403091866 0.99901768238014022 1.4364005186481705 0.67924385195974457 2.479056188609507 -0.87727731544280718 0.49942237688418917 0.65534640639327368 2.603545334665986 -0.52490753307306581 -4.3568556625813377 -0.90968946668142925 0.8006708760964476 -0.9437953237659269 1.7539185336852883 -0.32141235693636777 0.48256440550293639 -0.55391320939786037 -0.58393358398771955 0.50615685217467088
leaf_weight=904 28663 26659 38258 35759 1143 387 2891 207 32 3761 2249 94 106 24 888 238 729 200 1326 2956 377 371 1480
leaf_count=904 28663 26659 38258 35759 1143 387 2891 207 32 3761 2249 94 106 24 888 238 729 200 1326 2956 377 371 1480
internal_value=0.000952678 0.26385 -0.246567 -0.364327 0.372119 0.315114 0.505906 0.782408 2.02947 0.586874 0.419319 0.733617 -0.713377 -0.508002 -0.467406 -0.158833 -0.5144 0.964591 0.323087 0.16917 0.36422 0.562584 0.2861
internal_weight=149702 72596 77106 38848 43933 30807 13126 3130 239 4148 9996 2343 3089 2185 2161 1273 967 306 7653 4659 3333 2994 1851
internal_count=149702 72596 77106 38848 43933 30807 13126 3130 239 4148 9996 2343 3089 2185 2161 1273 967 306 7653 4659 3333 2994 1851
cat_boundaries=0 1 2 3 4
cat_threshold=264275 4 79937 63523
is_linear=0
shrinkage=0.05


Tree=37
num_leaves=24
num_cat=9
split_feature=5 5 5 2 2 2 17 5 2 2 5 2 9 8 8 23 11 2 8 5 8 9 2
split_gain=3.36319e+06 514886 408442 228429 217687 206163 182175 151674 135169 134913 108843 226600 106062 158092 215809 151217 120500 103484 103309 102162 94256 127712 140728
threshold=2761.5000000000005 3734.5000000000005 1174.5000000000002 0 1 2 3 4971.5000000000009 4 5 4873.5000000000009 6 6.5000000000000009 16.500000000000004 6.5000000000000009 0.0021460000000000008 4.5000000000000009 7 27.500000000000004 4955.5000000000009 3.5000000000000004 2.5000000000000004 8
decision_type=2 2 2 1 1 1 1 2 1 1 2 1 2 2 2 2 2 1 2 2 2 2 1
left_child=2 9 4 7 20 -4 8 -3 -6 -2 -5 12 15 14 -14 16 -12 -9 -13 -20 -1 22 -22
right_child=1 3 5 10 6 -7 -8 17 -10 -11 11 18 13 -15 -16 -17 -18 -19 19 -21 21 -23 -24
leaf_value=-0.1987324018724772 -0.038100235852933761 0.17968779465049606 -0.27332448498432121 0.41236339728592547 -0.93057141237336283 -0.072707838254735688 -0.12576872303066072 -0.08307376676665007 -0.3177236528422776 0.1717388811612944 3.8937980874818652 0.12751541131671415 0.42071728593359892 0.32993324166011823 2.3476572178788664 -1.9036952167325674 1.553561020721447 1.7235102044162087 2.7226263977332907 -0.30457574187188025 -0.30558809396376513 -0.58266679969865043 -1.8852335208715179
leaf_weight=1444 12388 15218 21839 24006 1417 31002 8025 120 2542 20059 94 1165 249 484 349 21 133 258 79 43 241 8589 392
leaf_count=1444 12388 15218 21839 24006 1417 31002 8025 120 2542 20059 94 1165 249 484 349 21 133 258 79 43 241 8589 392
internal_value=0.00350241 0.241438 -0.231833 0.356543 -0.409472 -0.155688 -0.262479 0.204136 -0.540246 0.0916652 0.44558 0.751949 1.20672 1.00185 1.54552 2.1484 2.52396 1.19349 0.27045 1.65625 -0.57384 -0.633194 -1.31858
internal_weight=150157 74666 75491 42219 22650 52841 11984 15596 3959 32447 26623 2617 1330 1082 598 248 227 378 1287 122 10666 9222 633
internal_count=150157 74666 75491 42219 22650 52841 11984 15596 3959 32447 26623 2617 1330 1082 598 248 227 378 1287 122 10666 9222 633
cat_boundaries=0 2 4 6 7 9 11 13 15 17
cat_threshold=1188045874 209 3189771178 605 8772933 453 2 9486341 258 1750411427 21 2684748677 302 37748736 193 369098888 65
is_linear=0
shrinkage=0.05


Tree=38
num_leaves=24
num_cat=7
split_feature=20 5 5 5 5 5 5 5 5 5 5 5 5 5 5 2 2 2 2 2 5 2 2
split_gain=1.17789e+08 2.66168e+07 2.55298e+07 4.9633e+06 4.5976e+06 3.10914e+06 2.4016e+06 946714 656620 560408 541103 360974 343325 332603 320416 275112 262023 260043 255859 248358 228719 275295 256130
threshold=1.0000000180025095e-35 2495.5000000000005 3387.5000000000005 2296.5000000000005 1502.5000000000002 3664.5000000000005 4313.5000000000009 1591.5000000000002 1138.5000000000002 1973.5000000000002 3212.5000000000005 2851.5000000000005 3788.5000000000005 4418.5000000000009 4821.5000000000009 0 1 2 3 4 737.50000000000011 5 6
decision_type=2 2 2 2 2 2 2 2 2 2 2 2 2 2 2 1 1 1 1 1 2 1 1
left_child=1 4 3 7 8 10 12 -2 20 15 -3 -5 -4 -7 19 -6 -16 -14 -10 -8 22 -22 -1
right_child=2 5 6 11 9 13 14 -9 18 -11 -12 -13 17 -15 16 -17 -18 -19 -20 -21 21 -23 -24
leaf_value=0.21547868192472214 -3.5863030042977631 2.0888274987104238 -1.1821152449019654 -2.138401696294133 0.74489619644518212 3.2457804967535502 -0.067131836436350054 -2.7753965292210765 0.9008795466187195 1.5247906595127625 2.6911934439986323 -1.6997339735734582 -0.52058317012758337 3.9191583963339811 -0.22957693773677043 1.256414594110427 0.4747223659408028 -0.97626955797608628 0.3758071915001352 -0.48744064109919877 0.55067412234031488 0.050721550286096186 -0.38178339643142045
leaf_weight=3328 6401 11317 8928 8745 5241 6421 6241 8231 4474 10378 5563 10122 5638 2572 2442 5577 2856 7317 4922 8074 4626 6802 3876
leaf_count=3328 6401 11317 8928 8745 5241 6421 6241 8231 4474 10378 5563 10122 5638 2572 2442 5577 2856 7317 4922 8074 4626 6802 3876
internal_value=-0.010664 1.38908 -1.41231 -2.43906 0.706625 2.68746 -0.583431 -3.13016 0.286402 1.26229 2.28736 -1.90307 -0.94354 3.43841 -0.18164 1.01046 0.150554 -0.779117 0.627192 -0.304585 0.114541 0.25363 -0.1061
internal_weight=150092 75097 74995 33499 49224 25873 41496 14632 28028 21196 16880 18867 21883 8993 19613 10818 5298 12955 9396 14315 18632 11428 7204
internal_count=150092 75097 74995 33499 49224 25873 41496 14632 28028 21196 16880 18867 21883 8993 19613 10818 5298 12955 9396 14315 18632 11428 7204
cat_boundaries=0 2 4 6 8 10 12 14
cat_threshold=1342650334 225 27032917 712 533500749 36 2736944718 316 3087190356 988 1094839412 562 1220368582 480
is_linear=0
shrinkage=0.05


Tree=39
num_leaves=24
num_cat=6
split_feature=20 2 0 8 17 2 23 23 2 23 8 23 24 24 23 2 24 24 24 7 24 0 11
split_gain=1.03901e+08 140036 57898.5 67211.5 58624.3 79245.2 112862 77863.4 71659.8 64033.7 62830.1 78177.4 62294 74500.4 57730.3 254346 149982 76727.8 79914 69184.2 61972.2 93919.1 60519.2
threshold=1.0000000180025095e-35 0 239203.50000000003 1.5000000000000002 1 2 0.0020380000000000003 0.0020620000000000005 3 0.0020660000000000006 1.0000000180025095e-35 0.0020660000000000006 0.010020000000000003 0.0099900000000000006 0.0018260000000000001 4 0.0015620000000000002 0.0017140000000000002 0.040456000000000006 5 0.0016540000000000003 86628.500000000015 3.5000000000000004
decision_type=2 1 2 2 1 1 2 2 1 2 2 2 2 2 2 1 2 2 2 1 2 2 2
left_child=1 2 4 -4 5 6 12 -8 -6 -9 11 -7 13 -1 15 19 -17 20 22 -3 -18 -22 -19
right_child=-2 14 3 -5 8 10 7 9 -10 -11 -12 -13 -14 -15 -16 16 17 18 -20 -21 21 -23 -24
leaf_value=1.4317917080403695 -1.3273037580652796 -0.7764564598018775 2.4745720881741651 0.94324576019570872 1.4799080446300252 2.9012455476843981 2.7943011525927299 -0.34742421471420976 1.2464116677936929 1.9660962145903178 1.3441313561545443 0.40295141561187964 1.9657006715062804 -0.34913440316476524 1.2618672844067425 -2.0626262191230995 1.5438771249621634 1.20707595849023 -0.59528322909805931 0.4522010289041436 1.863812927530248 -1.3528590183991653 2.3339480724625101
leaf_weight=1546 74958 174 77 1025 8001 133 323 31 7872 826 4413 41 589 61 48874 29 119 168 31 335 36 61 413
leaf_count=1546 74958 174 77 1025 8001 133 323 31 7872 826 4413 41 589 61 48874 29 119 168 31 335 36 61 413
internal_value=-0.0100394 1.30337 1.40447 1.05046 1.42142 1.53221 1.73255 2.13221 1.36584 1.88237 1.37794 2.31317 1.52559 1.36417 1.25265 0.932127 1.44969 1.59045 1.87641 0.0314901 0.77973 -0.158301 2.00838
internal_weight=150136 75178 24938 1102 23836 7963 3376 1180 15873 857 4587 174 2196 1607 50240 1366 857 828 612 509 216 97 581
internal_count=150136 75178 24938 1102 23836 7963 3376 1180 15873 857 4587 174 2196 1607 50240 1366 857 828 612 509 216 97 581
cat_boundaries=0 2 3 5 7 8 9
cat_threshold=71958558 828 1 67108874 548 4718620 288 588345632 4
is_linear=0
shrinkage=0.05


Tree=40
num_leaves=24
num_cat=6
split_feature=5 5 5 2 2 2 5 0 11 2 5 5 8 24 0 0 4 0 23 2 2 23 0
split_gain=3.77097e+06 518653 484465 155738 146197 139019 108966 105744 113576 171811 109931 113444 131020 116310 111775 111062 108323 120236 99975.5 134575 92567.5 90827.6 86480.4
threshold=2869.5000000000005 1791.5000000000002 4067.5000000000005 0 1 2 609.50000000000011 177425.50000000003 2.5000000000000004 3 4971.5000000000009 4723.5000000000009 2.5000000000000004 0.009812000000000003 221404.50000000003 197974.50000000003 1.5000000000000002 182331.50000000003 0.0021460000000000008 4 5 0.0022260000000000005 40332.000000000007
decision_type=2 2 2 1 1 1 2 2 2 1 2 2 2 2 2 2 2 2 2 1 1 2 2
left_child=1 3 20 6 -3 -4 -1 18 9 -9 11 12 -10 -13 15 -12 -11 -18 -7 -20 -2 -21 -8
right_child=2 4 5 -5 -6 7 22 8 10 16 14 13 -14 -15 -16 -17 17 -19 19 21 -22 -23 -24
leaf_value=-0.6441315975446894 0.24607480573396134 -0.21379148436663387 0.54094275784185997 -0.43625968057737669 -0.0095917765926286022 0.280752800106221 -0.46110643291821374 -0.65527145011754184 1.6777027537029476 2.1715488250323278 2.8234802686384999 0.54733576252904714 0.62110743695691228 -0.50338364283246129 3.866503888520243 -0.73378026247530737 3.0188416501042727 0.091153935982348069 -1.0472509341474432 -0.077667710308328405 0.089800051502842676 1.8243492215313717 -0.15732222876864654
leaf_weight=1558 15522 15182 12752 24469 20735 12217 2804 473 328 95 41 687 2779 427 51 47 38 441 331 290 24416 80 14242
leaf_count=1558 15522 15182 12752 24469 20735 12217 2804 473 328 95 41 687 2779 427 51 47 38 441 331 290 24416 80 14242
internal_value=0.00142647 -0.236275 0.265822 -0.353271 -0.095969 0.413869 -0.243752 0.324966 0.510794 0.0431511 0.623088 0.577494 0.732702 0.144578 2.0062 0.924847 0.619329 0.324005 0.247433 -0.333217 0.150621 0.325162 -0.207296
internal_weight=150005 78990 71015 43073 35917 31077 18604 18325 5407 1047 4360 4221 3107 1114 139 88 574 479 12918 701 39938 370 17046
internal_count=150005 78990 71015 43073 35917 31077 18604 18325 5407 1047 4360 4221 3107 1114 139 88 574 479 12918 701 39938 370 17046
cat_boundaries=0 2 4 6 8 10 12
cat_threshold=2723281042 298 44358913 869 946746636 553 43008098 198 2231370481 134 2493678413 330
is_linear=0
shrinkage=0.05


Tree=41
num_leaves=24
num_cat=9
split_feature=5 5 5 2 2 2 5 2 8 5 2 17 24 9 24 2 8 8 2 2 6 5 24
split_gain=3.42523e+06 492721 382268 292894 162173 151856 151703 287456 110547 107371 109832 111152 101788 144579 130819 89489.8 85146.1 83863.4 222634 148064 189607 138634 106188
threshold=2726.5000000000005 3788.5000000000005 1174.5000000000002 0 1 2 4806.5000000000009 3 1.5000000000000002 4971.5000000000009 4 5 0.039744000000000008 27.500000000000004 0.0018500000000000003 6 19.500000000000004 18.500000000000004 7 8 1991.5000000000002 536.50000000000011 0.0032420000000000005
decision_type=2 2 2 1 1 1 2 1 2 2 1 1 2 2 2 1 2 2 1 1 2 2 2
left_child=2 15 4 -3 8 -4 -5 9 -1 12 11 -11 14 -14 -8 -2 -12 19 -19 20 -6 -20 -23
right_child=1 3 5 6 17 -7 7 -9 -10 10 16 -13 13 -15 -16 -17 -18 18 21 -21 -22 22 -24
leaf_value=0.71206017052275539 0.22875912335854864 0.52590942261475015 -0.26058440287418483 0.19492486028842149 0.81551246489065743 -0.088439564070391996 -0.53935737764053127 0.88893107131529803 -0.22216020689202431 0.29587760698768284 -1.1543512999287502 3.5304253658487976 -0.62530252419747268 -4.4345007543462023 0.52418593306274142 0.051357160223145494 1.6204561045380679 -0.24593642683349609 -2.0534236573765194 -0.27038632142333002 -0.75849232498767882 -0.48264233811850893 -1.0038318458722937
leaf_weight=340 9855 15637 23241 20751 203 28614 515 2322 4594 44 74 67 220 28 659 25517 44 2510 225 7451 3306 1726 2254
leaf_count=340 9855 15637 23241 20751 203 28614 515 2322 4594 44 74 67 220 28 659 25517 44 2510 225 7451 3306 1726 2254
internal_value=0.0003321 0.237096 -0.240466 0.356488 -0.412034 -0.165661 0.24902 0.532171 -0.15745 0.0248563 1.02955 2.06395 -0.136823 -1.05701 0.0576296 0.100863 -0.109839 -0.482737 -0.622158 -0.397752 -0.665516 -0.844123 -0.777828
internal_weight=150197 75733 74464 40361 22609 51855 24724 3973 4934 1651 229 111 1422 248 1174 35372 118 17675 6715 10960 3509 4205 3980
internal_count=150197 75733 74464 40361 22609 51855 24724 3973 4934 1651 229 111 1422 248 1174 35372 118 17675 6715 10960 3509 4205 3980
cat_boundaries=0 2 4 6 8 10 11 13 15 17
cat_threshold=942579212 296 4554864 34 45462849 453 34685026 580 1114178 4 4 2258665536 842 2231507968 453 957356296 257
is_linear=0
shrinkage=0.05


Tree=42
num_leaves=24
num_cat=6
split_feature=20 5 5 5 5 5 5 5 5 5 5 5 5 5 2 2 5 2 2 2 2 12 5
split_gain=9.67117e+07 2.23788e+07 2.18481e+07 3.89832e+06 3.33345e+06 3.05011e+06 2.54931e+06 594739 565818 495447 430155 371739 327594 322787 277294 271116 267232 264945 254970 247769 202113 167977 147248
threshold=1.0000000180025095e-35 2332.5000000000005 3318.5000000000005 2117.5000000000005 3630.5000000000005 1412.5000000000002 4295.5000000000009 2869.5000000000005 1303.5000000000002 2637.5000000000005 737.50000000000011 1826.5000000000002 3578.5000000000005 4244.5000000000009 0 1 4806.5000000000009 2 3 4 5 2.5000000000000004 1699.5000000000002
decision_type=2 2 2 2 2 2 2 2 2 2 2 2 2 2 1 1 2 1 1 1 1 2 2
left_child=1 5 3 8 7 10 12 -3 -2 -5 15 19 -4 -6 -12 -1 17 -8 -18 -7 -14 -16 -10
right_child=2 4 6 9 13 11 16 -9 22 -11 14 -13 20 -15 21 -17 18 -19 -20 -21 -22 -23 -24
leaf_value=0.27900553276472312 -3.4517726933211907 1.7067987556014277 -1.2257086291806651 -2.1450713606623499 2.9040973552568805 1.1717496580463858 -0.45637158754236729 2.2585355683734463 -2.9745425025916128 -1.629855550586254 0.56111510360498262 1.2533692757944095 -0.57410841749403096 3.5060626884137065 -0.24146268289970069 -0.35420963622401502 0.72268635920012692 -0.026915229862192531 -0.031490544699503145 0.63897797798375011 -0.92702476850742144 0.27386796134262487 -2.5440936256741766
leaf_weight=2766 3961 9406 5572 7492 5646 3400 6996 10166 3415 12380 8496 10439 6989 3685 1970 4316 1508 7384 4285 6437 10222 8013 4774
leaf_count=2766 3961 9406 5572 7492 5646 3400 6996 10166 3415 12380 8496 10439 6989 3685 1970 4316 1508 7384 4285 6437 10222 8013 4774
internal_value=0.00181252 1.27462 -1.26695 -2.2555 2.36417 0.587588 -0.530029 1.99339 -2.96104 -1.82411 0.224322 1.04554 -0.892479 3.14186 0.351301 -0.107001 -0.120683 -0.236188 0.166034 0.824973 -0.78459 0.172001 -2.72364
internal_weight=149718 74740 74978 32022 28903 45837 42956 19572 12150 19872 25561 20276 22783 9331 18479 7082 20173 14380 5793 9837 17211 9983 8189
internal_count=149718 74740 74978 32022 28903 45837 42956 19572 12150 19872 25561 20276 22783 9331 18479 7082 20173 14380 5793 9837 17211 9983 8189
cat_boundaries=0 2 4 6 8 10 12
cat_threshold=1631921458 695 217712788 357 1198855115 7 2694873224 51 2160085048 814 4245490255 8
is_linear=0
shrinkage=0.05


Tree=43
num_leaves=24
num_cat=7
split_feature=20 5 5 5 5 5 5 5 5 5 5 5 5 2 2 5 2 2 5 2 2 2 5
split_gain=8.70632e+07 2.06951e+07 1.98964e+07 3.98799e+06 3.92289e+06 1.84185e+06 1.83316e+06 803420 566543 508279 292036 277378 254272 305142 293855 232202 263001 230747 219799 299684 217693 207236 198613
threshold=1.0000000180025095e-35 2099.5000000000005 3387.5000000000005 2350.5000000000005 3370.5000000000005 1174.5000000000002 4208.5000000000009 1643.5000000000002 2708.5000000000005 3911.5000000000005 1662.5000000000002 2923.5000000000005 646.50000000000011 0 1 4806.5000000000009 2 3 3929.5000000000005 4 5 6 848.50000000000011
decision_type=2 2 2 2 2 2 2 2 2 2 2 2 2 1 1 2 1 1 2 1 1 1 2
left_child=1 5 3 7 8 12 18 22 -3 -6 20 -5 13 -1 -14 17 -17 -8 -4 -20 -7 -12 -2
right_child=2 4 6 11 9 10 15 -9 -10 -11 21 -13 14 -15 -16 16 -18 -19 19 -21 -22 -23 -24
